%YAML:1.0
---
opencv_ml_svm:
   format: 3
   svmType: C_SVC
   kernel:
      type: RBF
      gamma: 5.0000000000000000e-01
   C: 1.
   term_criteria: { epsilon:1.1920928955078125e-07, iterations:1000 }
   var_count: 64
   class_count: 31
   class_labels: !!opencv-matrix
      rows: 31
      cols: 1
      dt: i
      data: [ 1001, 1003, 1005, 1007, 1009, 1011, 1013, 1015, 1017, 1019,
          1021, 1023, 1025, 1027, 1029, 1031, 1033, 1035, 1037, 1039,
          1041, 1043, 1045, 1047, 1049, 1051, 1053, 1055, 1057, 1059,
          1061 ]
   sv_total: 1172
   support_vectors:
      - [ 1.53030992e-01, 6.21845834e-02, 9.82850119e-02, 0.,
          1.08487077e-01, 8.03072304e-02, 4.60913219e-03, 2.34260753e-01,
          7.07848519e-02, 1.67759415e-02, 0., 0., 8.66655819e-03, 0.,
          2.01127958e-02, 3.31278950e-01, 1.96843669e-01, 6.27585575e-02,
          0., 4.87356400e-03, 4.46350761e-02, 0., 4.24975045e-02,
          2.38165975e-01, 1.56729639e-01, 1.15321964e-01, 7.38094002e-02,
          6.89226016e-03, 5.23391850e-02, 7.74485394e-02, 1.14485376e-01,
          3.44792873e-01, 9.84224975e-02, 8.70856717e-02, 0., 0.,
          6.32941276e-02, 5.77809401e-02, 7.23018721e-02, 3.57878685e-01,
          9.77608040e-02, 1.52867623e-02, 0., 0., 0., 0., 0.,
          2.32159272e-01, 9.85856727e-02, 0., 0., 0., 0., 0.,
          1.27770752e-02, 3.82710099e-01, 1.32933944e-01, 4.66505773e-02,
          6.76769763e-02, 5.84916025e-02, 0., 0., 0., 2.85122424e-01 ]
      - [ 1.43102169e-01, 1.03498630e-01, 3.43508497e-02, 7.03505874e-02,
          9.42507759e-03, 5.87506033e-02, 1.53100163e-01, 2.23724231e-01,
          9.17747542e-02, 6.26566913e-03, 7.45117804e-03, 0.,
          1.08394232e-02, 0., 2.80209235e-03, 3.31269354e-01,
          2.26857200e-01, 3.96943502e-02, 0., 4.19010548e-03,
          8.16235691e-03, 0., 6.93375245e-03, 1.92436114e-01,
          1.90428793e-01, 1.21583477e-01, 4.25913073e-02, 0.,
          6.02481738e-02, 7.77645111e-02, 5.41448779e-02, 3.07682633e-01,
          1.22233525e-01, 0., 0., 0., 0., 0., 6.02114722e-02,
          3.66489589e-01, 1.28963262e-01, 0., 0., 0., 0., 1.37511631e-02,
          0., 2.78283805e-01, 1.26208916e-01, 0., 0., 0., 0., 0.,
          1.77562386e-02, 3.78269643e-01, 1.20466389e-01, 6.14393391e-02,
          7.83412009e-02, 6.12649508e-02, 0., 1.18974335e-02, 0.,
          2.86583453e-01 ]
      - [ 2.14261770e-01, 1.01669990e-01, 8.89183804e-02, 6.16093129e-02,
          1.11084403e-02, 6.74453899e-02, 5.81229404e-02, 2.19351858e-01,
          1.25944495e-01, 7.99749605e-03, 0., 0., 9.51068010e-03,
          8.68818723e-03, 0., 3.09451580e-01, 2.44495034e-01,
          2.83784308e-02, 7.01462664e-03, 0., 7.18939817e-03, 0., 0.,
          1.59784153e-01, 2.10295931e-01, 1.08384810e-01, 6.93777204e-02,
          7.30586564e-03, 6.03245571e-02, 8.34137499e-02, 1.00540541e-01,
          3.09285462e-01, 1.87580884e-01, 5.15406393e-02, 0., 0.,
          2.98848692e-02, 0., 8.04004967e-02, 3.67103159e-01,
          1.45740211e-01, 4.27484186e-03, 0., 0., 0., 0., 0.,
          1.91354230e-01, 1.41966209e-01, 0., 3.15486751e-02, 0., 0., 0.,
          1.67589691e-02, 3.47894698e-01, 1.93604767e-01, 9.06490684e-02,
          9.90327895e-02, 0., 0., 0., 0., 2.54577577e-01 ]
      - [ 2.50243604e-01, 9.41290110e-02, 7.28137940e-02, 8.43786355e-03,
          6.31419867e-02, 2.62299106e-02, 1.17194317e-01, 2.69820333e-01,
          1.04656510e-01, 0., 0., 0., 1.46786459e-02, 0., 1.92605499e-02,
          2.91937023e-01, 2.19716728e-01, 3.46019231e-02, 3.14708464e-02,
          0., 2.14202423e-02, 0., 1.04225650e-02, 1.49611428e-01,
          2.28601307e-01, 1.06295586e-01, 0., 1.02436349e-01,
          5.32099679e-02, 6.06377609e-02, 7.94509873e-02, 3.04923832e-01,
          1.71919838e-01, 9.64172632e-02, 0., 0., 0., 0., 6.32298216e-02,
          3.59844059e-01, 1.22538395e-01, 5.14220772e-03, 0., 0., 0., 0.,
          0., 2.18259335e-01, 1.90244362e-01, 0., 0., 0., 0., 0.,
          2.96885497e-03, 3.12711716e-01, 2.27307275e-01, 7.03240186e-02,
          0., 4.95668650e-02, 0., 0., 0., 2.31996939e-01 ]
      - [ 3.56900543e-01, 6.27885684e-02, 1.14670910e-01, 0.,
          4.92846267e-03, 6.78477362e-02, 6.14447482e-02, 0.,
          2.77423739e-01, 4.14432678e-03, 0., 0., 6.96989894e-03, 0.,
          5.07431105e-02, 1.43024385e-01, 3.27143639e-01, 1.45486549e-01,
          0., 2.93956418e-02, 9.22030956e-03, 0., 0., 0., 2.76216507e-01,
          1.03121325e-01, 7.79470652e-02, 0., 7.34300688e-02,
          7.41760805e-02, 9.77236107e-02, 1.20811366e-01, 2.28232607e-01,
          7.18417838e-02, 5.76307252e-02, 7.13360533e-02, 5.83175831e-02,
          3.00542451e-02, 1.58639684e-01, 1.44407123e-01, 3.01585257e-01,
          1.00312859e-01, 2.34178975e-02, 0., 3.06063127e-02,
          3.47585306e-02, 0., 7.37039596e-02, 2.29585275e-01,
          8.47871974e-02, 5.19129820e-02, 4.38209204e-03, 7.79258413e-03,
          0., 0., 1.29946291e-01, 3.65224957e-01, 6.73570484e-02,
          4.77242991e-02, 9.23968181e-02, 3.61463577e-02, 3.98002081e-02,
          1.17812417e-01, 1.40303731e-01 ]
      - [ 3.57971072e-01, 9.37666968e-02, 1.00808457e-01, 4.99873795e-03,
          6.60648495e-02, 9.16163847e-02, 6.31594136e-02, 1.30289972e-01,
          2.75020927e-01, 4.55968827e-03, 0., 3.93656176e-03,
          7.00030662e-03, 0., 5.88653237e-03, 1.48601905e-01,
          3.09807062e-01, 8.10032114e-02, 0., 0., 1.59631539e-02, 0., 0.,
          6.95820674e-02, 2.61580259e-01, 1.18540794e-01, 6.74675703e-02,
          0., 8.25148299e-02, 8.38539526e-02, 1.21188194e-01,
          1.64606348e-01, 2.53322810e-01, 0., 0., 0., 0., 5.52504957e-02,
          6.54227957e-02, 9.29494947e-02, 3.61318380e-01, 7.00030662e-03,
          0., 0., 0., 2.17096321e-02, 9.03992280e-02, 1.13777563e-01,
          2.58278757e-01, 0., 0., 0., 0., 0., 5.07783480e-02,
          2.27622956e-01, 2.93847740e-01, 8.03700984e-02, 5.68397269e-02,
          3.11617050e-02, 0., 0., 0., 1.43482238e-01 ]
      - [ 2.14595318e-01, 1.03012010e-01, 8.83068889e-02, 1.72597617e-01,
          1.39757335e-01, 1.42747819e-01, 6.27268106e-02, 4.78712283e-03,
          8.76766890e-02, 6.89448491e-02, 1.05864704e-01, 1.25679404e-01,
          1.67586565e-01, 8.17064047e-02, 9.36873928e-02, 1.35361061e-01,
          2.54760027e-01, 6.09282963e-02, 8.87822062e-02, 7.73746520e-03,
          8.05848837e-02, 6.46407157e-02, 1.23195492e-01, 1.61732003e-01,
          2.19849631e-01, 7.15841865e-03, 6.85353652e-02, 0.,
          8.64997059e-02, 1.28890857e-01, 1.36903524e-01, 1.57144621e-01,
          1.40232563e-01, 9.91184488e-02, 0., 1.90353647e-01,
          4.67140675e-02, 8.42925310e-02, 1.04154103e-01, 1.87705547e-01,
          2.66277581e-01, 1.07375599e-01, 8.58860388e-02, 3.98381278e-02,
          6.08860850e-02, 1.00143306e-01, 2.49476600e-02, 1.74503952e-01,
          2.44172648e-01, 6.81098029e-02, 0., 0., 8.10080301e-03,
          5.11880293e-02, 6.20254651e-02, 8.91473666e-02, 2.89995968e-01,
          2.14563727e-01, 4.40188758e-02, 0., 0., 0., 9.61713195e-02,
          1.84497014e-01 ]
      - [ 2.79782146e-01, 9.13838968e-02, 8.65595862e-02, 1.46556839e-01,
          1.36300057e-01, 6.22236403e-03, 9.89692751e-03, 9.25957635e-02,
          1.49201483e-01, 8.68612435e-03, 1.04399696e-01, 8.49951953e-02,
          1.12527780e-01, 1.47329614e-01, 1.22225873e-01, 1.57511637e-01,
          1.90461874e-01, 1.81504145e-01, 1.72967482e-02, 9.94486548e-03,
          5.44506721e-02, 1.07648373e-01, 1.41376136e-02, 1.27141193e-01,
          1.21625416e-01, 1.12479486e-01, 0., 1.34478370e-02,
          3.98151837e-02, 1.76329374e-01, 1.35694712e-01, 1.65580943e-01,
          1.65998206e-01, 1.22736476e-01, 4.34340350e-02, 1.04563564e-01,
          1.06321119e-01, 5.21799400e-02, 1.14513502e-01, 2.15472877e-01,
          2.86121637e-01, 1.27702206e-01, 5.28628118e-02, 1.31095588e-01,
          9.13950950e-02, 4.98571135e-02, 9.72466022e-02, 9.00973976e-02,
          1.99272409e-01, 6.99620172e-02, 0., 0., 3.57505046e-02,
          7.92393312e-02, 6.22236403e-03, 1.58363193e-01, 2.88675338e-01,
          1.77679822e-01, 1.52714431e-01, 5.44896424e-02, 5.65397292e-02,
          5.89721389e-02, 1.58937946e-01, 9.94016454e-02 ]
      - [ 2.56752521e-01, 1.16858110e-01, 1.58156157e-01, 1.22825369e-01,
          1.55436978e-01, 4.92160842e-02, 6.14657952e-03, 1.05682582e-01,
          8.66935179e-02, 6.67015240e-02, 8.35858658e-02, 1.23199984e-01,
          1.40382141e-01, 1.13777623e-01, 1.99381948e-01, 1.17908873e-01,
          1.54874817e-01, 1.72953442e-01, 8.01338907e-03, 5.30658849e-03,
          1.15955081e-02, 0., 9.40633416e-02, 9.91855338e-02,
          7.46455267e-02, 8.31159130e-02, 1.56535476e-01, 0.,
          9.34549868e-02, 1.69516191e-01, 1.90613583e-01, 8.99836868e-02,
          8.93168673e-02, 1.08828016e-01, 8.89782235e-02, 1.03868201e-01,
          5.55362217e-02, 4.85614203e-02, 4.33923863e-02, 2.53565699e-01,
          3.16348821e-01, 9.95430052e-02, 0., 7.44696483e-02,
          1.62893265e-01, 0., 1.04428045e-01, 1.22406736e-01,
          1.44229040e-01, 9.88494530e-02, 0., 5.28106578e-02, 0.,
          7.59017020e-02, 0., 1.21199936e-01, 2.66772240e-01,
          1.56217411e-01, 2.02349842e-01, 6.40229136e-02, 8.81932974e-02,
          7.75745660e-02, 1.69910073e-01, 1.23307124e-01 ]
      - [ 2.51789480e-01, 1.11484453e-01, 8.19714814e-02, 1.52923331e-01,
          1.34787574e-01, 0., 3.35879922e-02, 1.19040765e-01,
          1.39273837e-01, 1.26157075e-01, 7.82846734e-02, 1.01332143e-01,
          8.27120095e-02, 1.23750009e-01, 1.29333869e-01, 1.75472349e-01,
          2.15436429e-01, 1.14057101e-01, 9.78576690e-02, 9.55153331e-02,
          6.80014566e-02, 1.31014988e-01, 1.00044139e-01, 9.32502896e-02,
          1.29206657e-01, 1.23686850e-01, 1.11869879e-01, 1.42353773e-01,
          9.60606560e-02, 8.73226896e-02, 1.68959603e-01, 1.39814481e-01,
          1.24398611e-01, 1.34039164e-01, 0., 4.31373008e-02,
          7.41564110e-02, 6.31379932e-02, 8.86829048e-02, 2.41122738e-01,
          2.30131581e-01, 1.24319352e-01, 8.86843875e-02, 1.10470578e-01,
          8.33595321e-02, 0., 1.47907630e-01, 1.12532742e-01,
          2.47977868e-01, 0., 8.09119642e-02, 6.89542592e-02,
          7.70572573e-02, 0., 0., 5.93236610e-02, 3.13866228e-01,
          1.53802216e-01, 1.50613546e-01, 0., 0., 3.36250104e-02, 0.,
          1.47930726e-01 ]
      - [ 2.23653346e-01, 9.75539014e-02, 1.39234796e-01, 1.32231608e-01,
          1.18685886e-01, 6.88675568e-02, 8.85580778e-02, 7.22607970e-02,
          1.61252260e-01, 1.18035980e-01, 1.21978812e-01, 1.06428050e-01,
          9.66316685e-02, 9.95693579e-02, 1.34411752e-01, 1.46927908e-01,
          2.02732250e-01, 1.29182473e-01, 7.70932436e-02, 1.42428249e-01,
          1.08520076e-01, 9.19155031e-02, 1.39881179e-01, 4.77162749e-02,
          1.19963355e-01, 1.16256207e-01, 6.47550449e-02, 1.58813238e-01,
          1.38442501e-01, 1.48649171e-01, 1.01087973e-01, 1.44444764e-01,
          1.84523016e-01, 6.29216954e-02, 1.40854418e-01, 9.62737352e-02,
          5.24445735e-02, 3.42201702e-02, 7.43447766e-02, 1.66911304e-01,
          3.00444841e-01, 8.95891190e-02, 4.31535468e-02, 1.28694624e-01,
          1.16250068e-01, 6.77539334e-02, 0., 1.63801670e-01,
          2.13024706e-01, 5.14122620e-02, 4.67966795e-02, 6.35971725e-02,
          5.56457862e-02, 9.79973823e-02, 3.33564505e-02, 1.60790637e-01,
          2.30566204e-01, 1.71211779e-01, 1.42912224e-01, 5.18560708e-02,
          4.43563052e-02, 6.42132834e-02, 7.97773525e-02, 1.13371395e-01 ]
      - [ 2.14958057e-01, 8.78966525e-02, 1.36418745e-01, 8.57030079e-02,
          1.53341651e-01, 4.43141982e-02, 6.62587434e-02, 4.86393981e-02,
          9.51252058e-02, 7.48788267e-02, 7.51493797e-02, 1.11385584e-01,
          1.09444432e-01, 0., 1.18024446e-01, 2.09846944e-01,
          1.82960480e-01, 1.59886524e-01, 7.20104426e-02, 7.14163808e-03,
          8.25917348e-02, 8.17561522e-02, 6.88978797e-03, 0.,
          8.94300565e-02, 1.09373137e-01, 1.16066687e-01, 4.10351455e-02,
          1.44353479e-01, 1.22978322e-01, 1.74712867e-01, 1.60148233e-01,
          1.37265459e-01, 8.69279504e-02, 1.02588467e-01, 4.37272005e-02,
          6.68270141e-02, 1.22252852e-01, 5.19313365e-02, 2.04970181e-01,
          3.20463151e-01, 1.06330678e-01, 1.01107284e-01, 1.06847987e-01,
          7.98141286e-02, 0., 1.21328823e-01, 1.92668065e-01,
          1.92233741e-01, 5.83341941e-02, 4.12806571e-02, 0.,
          6.61257133e-02, 9.87122487e-03, 3.82932909e-02, 1.60862371e-01,
          2.91505337e-01, 2.23046094e-01, 1.44358590e-01, 5.23864962e-02,
          9.97016504e-02, 9.87097770e-02, 6.57456070e-02, 1.64769977e-01 ]
      - [ 2.14773655e-01, 1.70804381e-01, 1.03061371e-01, 1.75250053e-01,
          8.40817019e-02, 1.14800148e-01, 3.89843993e-02, 0.,
          1.38855115e-01, 7.39115104e-02, 1.08809628e-01, 1.31192729e-01,
          1.14098616e-01, 1.01517573e-01, 1.48673758e-01, 1.54581144e-01,
          2.02731967e-01, 7.56838247e-02, 1.57160491e-01, 5.10405600e-02,
          1.44723896e-02, 8.85136575e-02, 3.80313061e-02, 1.11242309e-01,
          1.86159074e-01, 1.25825986e-01, 7.08331242e-02, 9.49891657e-02,
          1.57268435e-01, 9.88135263e-02, 1.67744547e-01, 1.39443994e-01,
          1.83262393e-01, 9.09959748e-02, 7.14901239e-02, 0.,
          8.46788287e-02, 6.23122416e-02, 2.88587380e-02, 1.87921271e-01,
          2.99095392e-01, 1.26876831e-01, 5.33473380e-02, 1.26742423e-01,
          6.44634813e-02, 5.26089631e-02, 7.43883625e-02, 1.03003725e-01,
          2.16798276e-01, 1.88322868e-02, 3.47569846e-02, 0.,
          4.87352461e-02, 5.38479984e-02, 3.23743979e-03, 6.15481362e-02,
          2.94156104e-01, 1.99824646e-01, 1.34129956e-01, 0., 0.,
          9.18008462e-02, 8.78483951e-02, 1.89554900e-01 ]
      - [ 1.65304825e-01, 9.20529813e-02, 1.34881392e-01, 1.57304689e-01,
          2.02435255e-01, 4.94321808e-02, 7.53675634e-03, 0.,
          1.33610904e-01, 8.53024647e-02, 8.80919695e-02, 1.37101844e-01,
          1.36412382e-01, 1.18628271e-01, 1.33776784e-01, 1.10316016e-01,
          1.99280530e-01, 9.82735902e-02, 1.20143436e-01, 1.19938189e-02,
          1.04521163e-01, 0., 7.21962973e-02, 7.44590238e-02,
          1.11189611e-01, 9.05124694e-02, 5.42044565e-02, 4.98811342e-02,
          1.33015364e-01, 1.60259128e-01, 1.44645989e-01, 1.43175274e-01,
          1.70924708e-01, 1.43105388e-01, 1.29406229e-01, 0.,
          1.22575872e-01, 7.71751180e-02, 1.11454815e-01, 2.32772350e-01,
          2.15371877e-01, 1.33905411e-01, 9.63649675e-02, 1.21071868e-01,
          7.67417699e-02, 1.23745240e-01, 1.03686661e-01, 1.14762522e-01,
          2.05232218e-01, 1.11380927e-01, 4.89688367e-02, 6.86819246e-03,
          6.68048933e-02, 8.54045898e-02, 1.08482830e-01, 1.77992165e-01,
          2.81899065e-01, 1.73639670e-01, 1.20114550e-01, 9.44195688e-02,
          3.35382819e-02, 1.04927599e-01, 8.60147700e-02, 1.21897571e-01 ]
      - [ 2.57188171e-01, 1.55567080e-01, 9.13584381e-02, 7.33474195e-02,
          8.80408511e-02, 5.31413332e-02, 6.86975271e-02, 1.03471205e-01,
          1.69569656e-01, 1.14777170e-01, 7.93826655e-02, 1.32310480e-01,
          1.27288103e-01, 8.69762748e-02, 1.03925779e-01, 1.47509515e-01,
          1.54852957e-01, 1.01406783e-01, 1.15082629e-01, 1.20321803e-01,
          1.69923991e-01, 6.36403635e-02, 5.88185526e-02, 1.06187701e-01,
          1.73512787e-01, 1.63414225e-01, 1.13579959e-01, 7.86628276e-02,
          1.11701794e-01, 1.02586031e-01, 1.06176808e-01, 1.57844901e-01,
          1.80652171e-01, 7.47659951e-02, 3.91264781e-02, 1.12113178e-01,
          1.25591755e-01, 7.59660378e-02, 7.49240965e-02, 1.63831338e-01,
          2.32070059e-01, 1.88095495e-01, 5.88211454e-02, 1.00761555e-01,
          9.42050517e-02, 8.76103565e-02, 5.17683886e-02, 1.27761558e-01,
          2.93977618e-01, 1.50830805e-01, 0., 7.02737793e-02,
          7.12598637e-02, 6.15331642e-02, 7.16085806e-02, 1.53480932e-01,
          1.89355567e-01, 1.42950639e-01, 1.13126457e-01, 1.00743286e-01,
          1.07453145e-01, 5.63791692e-02, 0., 1.13062777e-01 ]
      - [ 2.44320095e-01, 1.22788727e-01, 8.09853524e-02, 1.64295375e-01,
          1.86564431e-01, 6.69459999e-02, 6.16253205e-02, 9.91732534e-03,
          1.24485761e-01, 6.96452707e-02, 1.15027189e-01, 9.83809829e-02,
          1.09488092e-01, 1.03880033e-01, 1.07658543e-01, 1.85736269e-01,
          1.60395563e-01, 1.34331435e-01, 1.77904908e-02, 1.12326127e-02,
          1.94059126e-02, 1.10178344e-01, 1.31028173e-02, 7.95942470e-02,
          1.53724328e-01, 8.58066827e-02, 1.12110920e-01, 9.25460923e-03,
          9.34907049e-02, 1.38108462e-01, 2.21637174e-01, 1.86440080e-01,
          1.60417080e-01, 4.20857444e-02, 1.41623795e-01, 7.27071753e-03,
          0., 7.30642974e-02, 9.98921096e-02, 2.16925889e-01,
          3.06491017e-01, 6.26702681e-02, 1.28304631e-01, 1.14860430e-01,
          0., 0., 1.38657361e-01, 1.33355528e-01, 1.89135730e-01, 0., 0.,
          5.31863384e-02, 5.90717606e-02, 0., 7.53390491e-02,
          9.60686058e-02, 3.17206591e-01, 1.66932225e-01, 1.16545312e-01,
          7.27071753e-03, 0., 1.32411525e-01, 1.32254437e-01,
          9.55409780e-02 ]
      - [ 2.04701021e-01, 1.19663991e-01, 1.06871776e-01, 1.07239097e-01,
          1.68162286e-01, 1.17258795e-01, 9.16361362e-02, 4.72191395e-03,
          1.25002399e-01, 1.06815107e-01, 9.34723094e-02, 1.28278494e-01,
          1.82133079e-01, 9.66252461e-02, 1.66487977e-01, 1.60915032e-01,
          1.12655997e-01, 1.45756364e-01, 1.54232726e-01, 7.63206743e-03,
          9.61031206e-03, 1.22213379e-01, 1.22368798e-01, 1.00466333e-01,
          1.27949402e-01, 8.77022967e-02, 1.01769194e-01, 7.63206743e-03,
          6.30838126e-02, 1.89676389e-01, 1.61452249e-01, 1.64360151e-01,
          1.54341221e-01, 1.58151418e-01, 5.87192141e-02, 0.,
          5.55102266e-02, 8.71849358e-02, 1.02324858e-01, 1.91536427e-01,
          2.69358307e-01, 9.51489583e-02, 6.30504414e-02, 1.28995106e-01,
          1.09817930e-01, 9.63541940e-02, 5.77779934e-02, 1.23631418e-01,
          1.65847450e-01, 7.54696354e-02, 7.27161169e-02, 6.73682541e-02,
          1.48794642e-02, 5.34798168e-02, 3.94372530e-02, 7.27680773e-02,
          3.22635293e-01, 1.32191211e-01, 1.42642617e-01, 0., 0.,
          6.25997409e-02, 1.40892893e-01, 1.60351738e-01 ]
      - [ 1.77800879e-01, 1.09829664e-01, 1.28776968e-01, 1.41591921e-01,
          1.73810363e-01, 0., 7.45956898e-02, 0., 1.13600470e-01,
          7.99482390e-02, 1.20275408e-01, 1.11610472e-01, 1.61120847e-01,
          1.45521477e-01, 1.36112809e-01, 1.57450065e-01, 1.22253001e-01,
          1.70076966e-01, 1.30849987e-01, 0., 1.50331911e-02,
          1.14931792e-01, 4.77181673e-02, 1.00901134e-01, 1.56410694e-01,
          9.37944558e-03, 0., 5.17044961e-02, 1.01522915e-01,
          1.33371830e-01, 1.61271498e-01, 1.90088496e-01, 1.55979812e-01,
          1.11351669e-01, 1.28908783e-01, 9.10417140e-02, 4.75426018e-02,
          6.09184913e-02, 7.38089010e-02, 2.37983584e-01, 2.48810410e-01,
          1.44839242e-01, 1.05933286e-01, 7.92361200e-02, 1.30134493e-01,
          1.03043728e-01, 9.63648334e-02, 1.03516467e-01, 1.44490883e-01,
          1.39622629e-01, 0., 0., 0., 4.09467258e-02, 1.02665573e-01,
          9.68083590e-02, 3.18216532e-01, 1.60867885e-01, 1.43923044e-01,
          6.81671873e-02, 4.90626767e-02, 8.59081522e-02, 1.41215056e-01,
          1.45166829e-01 ]
      - [ 1.48305804e-01, 9.67382118e-02, 1.47063494e-01, 2.00484827e-01,
          1.77601099e-01, 4.40008566e-02, 0., 7.09284842e-02,
          9.46150348e-02, 4.55972850e-02, 5.48342653e-02, 1.61978245e-01,
          1.94702923e-01, 9.71250534e-02, 1.24696381e-01, 2.23391756e-01,
          1.87406689e-01, 1.38980091e-01, 5.47938310e-02, 7.15827569e-02,
          1.48905411e-01, 1.37774929e-01, 7.82388374e-02, 7.19647855e-02,
          1.17309518e-01, 1.54469341e-01, 2.60819364e-02, 1.39180839e-01,
          1.30311936e-01, 1.78523675e-01, 1.46769777e-01, 1.50930181e-01,
          1.08877942e-01, 9.27598681e-03, 0., 0., 7.31048882e-02,
          5.73955588e-02, 1.73926905e-01, 3.15209001e-01, 2.20189303e-01,
          6.11945540e-02, 0., 7.52253309e-02, 5.48171438e-03, 0.,
          1.15266301e-01, 2.49919787e-01, 1.16512626e-01, 5.82617298e-02,
          3.12274415e-02, 4.26998436e-02, 6.29037991e-02, 8.79453495e-03,
          9.93179828e-02, 1.81647629e-01, 1.97565049e-01, 8.58795866e-02,
          8.66909400e-02, 1.02291770e-01, 8.66022557e-02, 1.03518516e-01,
          5.65118007e-02, 1.14336237e-01 ]
      - [ 2.30087087e-01, 1.29761800e-01, 9.68554094e-02, 1.61889970e-01,
          1.47525936e-01, 1.31239504e-01, 5.73247634e-02, 8.99979249e-02,
          8.23742673e-02, 3.09298025e-03, 9.41266268e-02, 1.02621831e-01,
          1.02122188e-01, 1.07975744e-01, 9.10019204e-02, 1.39857024e-01,
          1.79756626e-01, 1.66713879e-01, 1.06703036e-01, 8.09481815e-02,
          4.55796979e-02, 1.10544093e-01, 7.54749179e-02, 6.53033182e-02,
          1.26285672e-01, 1.48756981e-01, 4.68507372e-02, 7.47556100e-03,
          1.47786945e-01, 1.57394111e-01, 1.89586878e-01, 1.64998680e-01,
          1.68435216e-01, 8.17404911e-02, 8.06294158e-02, 8.95786211e-02,
          1.10144362e-01, 9.81936753e-02, 8.48621354e-02, 1.99842930e-01,
          2.55195200e-01, 9.04548690e-02, 8.34086463e-02, 1.04002006e-01,
          9.46950763e-02, 7.28344470e-02, 3.09298025e-03, 1.20500669e-01,
          2.36496150e-01, 6.18596049e-03, 6.98426133e-03, 3.30023728e-02,
          6.81738481e-02, 9.11046639e-02, 1.05882347e-01, 1.67573258e-01,
          3.14795554e-01, 1.16193593e-01, 1.30080447e-01, 7.29316324e-02,
          3.36184241e-02, 8.15996453e-02, 1.02870680e-01, 1.21677205e-01 ]
      - [ 2.30111033e-01, 1.36150956e-01, 1.01193547e-01, 1.23147391e-01,
          1.15282655e-01, 8.83256644e-03, 1.12156510e-01, 9.97864008e-02,
          1.25081003e-01, 1.36554003e-01, 5.81916561e-03, 9.62813795e-02,
          7.60058612e-02, 1.15133964e-01, 1.31759867e-01, 1.14477664e-01,
          2.00737059e-01, 1.44875288e-01, 5.58183417e-02, 6.34246171e-02,
          6.88433275e-02, 3.40420045e-02, 9.06990469e-02, 6.21364685e-03,
          7.87009299e-02, 1.08820908e-01, 4.60271873e-02, 4.89331549e-03,
          1.35495588e-02, 1.55989572e-01, 1.67735279e-01, 1.21263660e-01,
          2.14652196e-01, 1.47166938e-01, 1.01239957e-01, 8.82463902e-02,
          9.24781933e-02, 0., 9.96409580e-02, 2.30405912e-01,
          2.97950476e-01, 8.54872838e-02, 9.33609009e-02, 3.88252921e-02,
          7.92870820e-02, 9.59224254e-02, 1.35150179e-01, 1.21496819e-01,
          1.65149406e-01, 7.57977068e-02, 1.17673784e-01, 8.16080868e-02,
          2.53950562e-02, 5.90746365e-02, 9.23546553e-02, 1.28072813e-01,
          3.09715599e-01, 1.48056388e-01, 1.92898542e-01, 5.39007671e-02,
          1.03571348e-01, 9.44984853e-02, 1.29681811e-01, 1.21656843e-01 ]
      - [ 2.39025220e-01, 3.99010517e-02, 3.92495953e-02, 9.10125971e-02,
          1.56075269e-01, 5.31412922e-02, 9.43729132e-02, 6.23104163e-02,
          1.64247572e-01, 8.56954381e-02, 1.15987495e-01, 1.11687385e-01,
          9.19731781e-02, 9.15343240e-02, 1.57903716e-01, 2.66154826e-01,
          1.63106591e-01, 1.41605049e-01, 1.70048624e-01, 1.59289405e-01,
          1.95831254e-01, 4.34873737e-02, 5.63804694e-02, 4.82240366e-03,
          1.15166456e-01, 1.03462331e-01, 1.42643914e-01, 7.53469691e-02,
          1.93825707e-01, 1.44704029e-01, 9.12504345e-02, 1.03565156e-01,
          1.45720989e-01, 7.89974630e-02, 4.58231494e-02, 5.22669554e-02,
          5.35395145e-02, 4.77027819e-02, 9.91678238e-02, 2.53499299e-01,
          2.41881087e-01, 1.28572747e-01, 4.23296168e-02, 8.83115605e-02,
          1.13935195e-01, 4.06234078e-02, 1.10243700e-01, 9.77492705e-02,
          1.14192598e-01, 3.22493562e-03, 0., 8.31434354e-02,
          1.89756319e-01, 7.38783479e-02, 8.96502659e-02, 1.91179574e-01,
          1.12542063e-01, 1.03541575e-01, 1.86762482e-01, 1.22162662e-01,
          0., 7.96135366e-02, 7.51649216e-02, 1.51567906e-01 ]
      - [ 2.46885359e-01, 8.95413682e-02, 1.60753205e-01, 1.24745078e-01,
          1.15546882e-01, 7.26641938e-02, 8.39062780e-02, 1.39825657e-01,
          1.51434407e-01, 7.73740336e-02, 1.02348298e-01, 1.02765985e-01,
          1.19075768e-01, 1.44333333e-01, 1.18165202e-01, 1.13567851e-01,
          1.55309424e-01, 1.15682401e-01, 1.61605090e-01, 5.20973504e-02,
          8.43143016e-02, 1.13190494e-01, 4.36108420e-03, 8.93732905e-02,
          1.82457954e-01, 1.19783960e-01, 1.43632263e-01, 6.71660230e-02,
          1.53973535e-01, 1.54034376e-01, 1.23369850e-01, 1.54989958e-01,
          1.78733557e-01, 1.04318343e-01, 1.05050154e-01, 5.30302674e-02,
          8.24617743e-02, 1.08191989e-01, 9.83780622e-02, 1.57207459e-01,
          2.43280873e-01, 1.35317728e-01, 1.33578211e-01, 1.08479150e-01,
          5.30557670e-02, 1.07910223e-01, 4.67116237e-02, 1.11156553e-01,
          2.47753352e-01, 0., 0., 5.65407574e-02, 7.84916990e-03,
          7.27789924e-02, 8.69538262e-02, 1.43471614e-01, 2.35579342e-01,
          1.50802970e-01, 1.65383056e-01, 1.25805447e-02, 6.35181181e-03,
          7.82455876e-02, 1.27740785e-01, 8.28800127e-02 ]
      - [ 1.67494729e-01, 1.21035650e-01, 1.49892002e-01, 1.71899974e-01,
          1.67069510e-01, 4.92209271e-02, 1.15793817e-01, 3.94801125e-02,
          1.03471085e-01, 8.17125738e-02, 1.04760237e-01, 1.01881579e-01,
          1.63549334e-01, 1.56040832e-01, 1.36435881e-01, 7.38733187e-02,
          1.78859621e-01, 1.15990914e-01, 1.23484984e-01, 1.37578174e-01,
          1.36562794e-01, 0., 1.17088206e-01, 1.06810637e-01,
          1.30285919e-01, 1.29358515e-01, 8.65740776e-02, 1.42123953e-01,
          1.22549795e-01, 1.79174572e-01, 1.34085327e-01, 1.32439420e-01,
          1.01094186e-01, 1.18423924e-01, 1.20248593e-01, 1.09601080e-01,
          9.26696062e-02, 8.05390328e-02, 1.12828545e-01, 2.45126978e-01,
          1.70918941e-01, 1.30359188e-01, 5.71391061e-02, 6.97756633e-02,
          9.83455777e-02, 5.99080063e-02, 0., 1.83920786e-01,
          1.51460305e-01, 8.27159211e-02, 9.58371237e-02, 0.,
          5.28098978e-02, 0., 6.22638650e-02, 6.01457171e-02,
          3.12831253e-01, 1.64799154e-01, 7.26110861e-02, 3.34299318e-02,
          5.30322045e-02, 9.52932984e-02, 1.33500367e-01, 1.68000042e-01 ]
      - [ 2.21980378e-01, 1.14008158e-01, 1.37132645e-01, 7.78240478e-03,
          1.60463259e-01, 6.16691187e-02, 1.15487978e-01, 1.32873505e-01,
          7.06042349e-02, 1.08733438e-01, 9.39566046e-02, 9.03565511e-02,
          7.76692927e-02, 1.14262134e-01, 1.05137058e-01, 1.78810239e-01,
          1.83179721e-01, 1.26888931e-01, 5.75309582e-02, 8.98004994e-02,
          7.98240900e-02, 1.34071767e-01, 1.21961206e-01, 5.50299138e-03,
          9.87742543e-02, 1.27027124e-01, 5.84293604e-02, 1.03970423e-01,
          1.16916932e-01, 1.60944432e-01, 1.06865205e-01, 2.23398834e-01,
          1.54294729e-01, 9.81606916e-02, 7.23944455e-02, 1.24490120e-01,
          1.29445106e-01, 6.81651533e-02, 1.10256121e-01, 1.53983206e-01,
          2.59183824e-01, 1.16086163e-01, 1.32778019e-01, 6.75813034e-02,
          1.09099902e-01, 1.03707239e-01, 1.28402159e-01, 7.42646083e-02,
          1.85007781e-01, 1.20925128e-01, 5.70608564e-02, 0.,
          1.32783011e-01, 5.63312508e-02, 7.30991662e-02, 1.47717312e-01,
          2.80900538e-01, 1.75559923e-01, 1.26948357e-01, 0.,
          1.43385038e-01, 5.28599955e-02, 0., 1.13454610e-01 ]
      - [ 1.90986291e-01, 1.35677800e-01, 7.74442330e-02, 1.47949636e-01,
          1.67334050e-01, 9.51533541e-02, 3.19616869e-02, 8.10624063e-02,
          8.41870829e-02, 7.22230673e-02, 3.07790767e-02, 1.32752627e-01,
          1.41397253e-01, 1.13771625e-01, 9.79712158e-02, 1.68762326e-01,
          1.16978399e-01, 1.17348604e-01, 1.60124838e-01, 0.,
          1.17518127e-01, 1.35790780e-01, 7.80654550e-02, 1.05026193e-01,
          1.55907005e-01, 1.68655008e-01, 8.54310468e-02, 1.24001332e-01,
          1.79587901e-01, 1.08997203e-01, 1.60567582e-01, 1.84409425e-01,
          1.62039593e-01, 8.96151364e-02, 9.28725973e-02, 0.,
          9.03898254e-02, 9.53850448e-02, 8.85122120e-02, 2.14124337e-01,
          2.61914581e-01, 8.40528980e-02, 7.40788877e-02, 1.13458402e-01,
          1.02907963e-01, 2.46197209e-02, 7.49557614e-02, 1.24601066e-01,
          1.59294024e-01, 5.51890209e-02, 4.58788350e-02, 0.,
          4.15731184e-02, 0., 0., 4.99551557e-02, 3.01048249e-01,
          1.07010566e-01, 1.78176120e-01, 6.50252402e-02, 0.,
          8.95175040e-02, 1.63774505e-01, 2.02493936e-01 ]
      - [ 2.14595318e-01, 1.03012010e-01, 8.83068889e-02, 1.72597617e-01,
          1.39757335e-01, 1.42747819e-01, 6.27268106e-02, 4.78712283e-03,
          8.76766890e-02, 6.89448491e-02, 1.05864704e-01, 1.25679404e-01,
          1.67586565e-01, 8.17064047e-02, 9.36873928e-02, 1.35361061e-01,
          2.54760027e-01, 6.09282963e-02, 8.87822062e-02, 7.73746520e-03,
          8.05848837e-02, 6.46407157e-02, 1.23195492e-01, 1.61732003e-01,
          2.19849631e-01, 7.15841819e-03, 6.85353652e-02, 0.,
          8.64997059e-02, 1.28890857e-01, 1.36903524e-01, 1.57144621e-01,
          1.40232563e-01, 9.91184488e-02, 0., 1.90353647e-01,
          4.67140675e-02, 8.42925310e-02, 1.04154095e-01, 1.87705547e-01,
          2.66277581e-01, 1.07375599e-01, 8.58860463e-02, 3.98381278e-02,
          6.08860850e-02, 1.00143306e-01, 2.49476600e-02, 1.74503952e-01,
          2.44172648e-01, 6.81098029e-02, 0., 0., 8.10080301e-03,
          5.11880293e-02, 6.20254651e-02, 8.91473666e-02, 2.89995968e-01,
          2.14563727e-01, 4.40188758e-02, 0., 0., 0., 9.61713195e-02,
          1.84497014e-01 ]
      - [ 2.14595318e-01, 1.03012010e-01, 8.83068889e-02, 1.72597617e-01,
          1.39757335e-01, 1.42747819e-01, 6.27268106e-02, 4.78712283e-03,
          8.76766890e-02, 6.89448491e-02, 1.05864704e-01, 1.25679404e-01,
          1.67586565e-01, 8.17064047e-02, 9.36873928e-02, 1.35361061e-01,
          2.54760027e-01, 6.09282963e-02, 8.87822062e-02, 7.73746520e-03,
          8.05848837e-02, 6.46407157e-02, 1.23195492e-01, 1.61732003e-01,
          2.19849631e-01, 7.15841819e-03, 6.85353652e-02, 0.,
          8.64997059e-02, 1.28890857e-01, 1.36903524e-01, 1.57144621e-01,
          1.40232563e-01, 9.91184488e-02, 0., 1.90353647e-01,
          4.67140675e-02, 8.42925310e-02, 1.04154095e-01, 1.87705547e-01,
          2.66277581e-01, 1.07375599e-01, 8.58860463e-02, 3.98381278e-02,
          6.08860850e-02, 1.00143306e-01, 2.49476600e-02, 1.74503952e-01,
          2.44172648e-01, 6.81098029e-02, 0., 0., 8.10080301e-03,
          5.11880293e-02, 6.20254651e-02, 8.91473666e-02, 2.89995968e-01,
          2.14563727e-01, 4.40188758e-02, 0., 0., 0., 9.61713195e-02,
          1.84497014e-01 ]
      - [ 2.45903969e-01, 1.57927379e-01, 8.86428505e-02, 1.02792300e-01,
          1.79826960e-01, 1.26209691e-01, 5.96022084e-02, 9.47042331e-02,
          1.21523365e-01, 7.84123912e-02, 8.19068402e-03, 1.16068445e-01,
          1.21767111e-01, 1.17470659e-01, 1.33736312e-01, 1.65298343e-01,
          1.47305429e-01, 1.32785559e-01, 0., 5.27792471e-03,
          1.46381315e-02, 6.27654558e-03, 8.19073394e-02, 1.44424871e-01,
          1.46549687e-01, 1.84789911e-01, 0., 8.04995969e-02,
          9.91606992e-03, 8.09610114e-02, 2.37121031e-01, 2.43613005e-01,
          1.72565892e-01, 9.22373906e-02, 9.41152498e-02, 0.,
          3.33062150e-02, 6.50178939e-02, 5.99405207e-02, 1.80463508e-01,
          3.37702274e-01, 8.94917473e-02, 1.07185533e-02, 0.,
          5.70936538e-02, 5.10682724e-02, 1.16967708e-01, 1.03534073e-01,
          1.70150131e-01, 6.51864931e-02, 0., 0., 0., 0., 6.11337880e-03,
          1.54089704e-01, 3.08034241e-01, 1.63803846e-01, 0.,
          7.51119629e-02, 3.89222614e-02, 9.88197625e-02, 1.42856568e-01,
          1.35913238e-01 ]
      - [ 2.79782146e-01, 9.13838968e-02, 8.65595862e-02, 1.46556839e-01,
          1.36300057e-01, 6.22236403e-03, 9.89692751e-03, 9.25957635e-02,
          1.49201483e-01, 8.68612435e-03, 1.04399696e-01, 8.49951953e-02,
          1.12527773e-01, 1.47329614e-01, 1.22225873e-01, 1.57511637e-01,
          1.90461874e-01, 1.81504145e-01, 1.72967482e-02, 9.94486548e-03,
          5.44506721e-02, 1.07648373e-01, 1.41376136e-02, 1.27141193e-01,
          1.21625416e-01, 1.12479486e-01, 0., 1.34478370e-02,
          3.98151837e-02, 1.76329374e-01, 1.35694712e-01, 1.65580943e-01,
          1.65998206e-01, 1.22736476e-01, 4.34340350e-02, 1.04563564e-01,
          1.06321119e-01, 5.21799400e-02, 1.14513502e-01, 2.15472877e-01,
          2.86121637e-01, 1.27702206e-01, 5.28628118e-02, 1.31095588e-01,
          9.13950950e-02, 4.98571135e-02, 9.72466022e-02, 9.00973976e-02,
          1.99272409e-01, 6.99620172e-02, 0., 0., 3.57505046e-02,
          7.92393312e-02, 6.22236403e-03, 1.58363193e-01, 2.88675368e-01,
          1.77679822e-01, 1.52714431e-01, 5.44896424e-02, 5.65397292e-02,
          5.89721389e-02, 1.58937946e-01, 9.94016454e-02 ]
      - [ 3.27992797e-01, 1.19964525e-01, 5.06344400e-02, 1.20130233e-01,
          7.29907602e-02, 0., 1.14276350e-01, 1.73053458e-01,
          1.10457197e-01, 7.47012347e-02, 8.12049657e-02, 4.82815653e-02,
          1.61635932e-02, 2.10979357e-02, 8.38692784e-02, 2.29129106e-01,
          2.15010867e-01, 1.22893080e-01, 1.53077701e-02, 1.04956003e-02,
          1.77859664e-02, 7.88260624e-02, 1.13746703e-01, 6.43445626e-02,
          1.79361746e-01, 1.25293240e-01, 1.02223396e-01, 0.,
          8.82543996e-02, 9.30038989e-02, 1.92075968e-01, 2.30901033e-01,
          1.43370986e-01, 9.12488550e-02, 5.42953312e-02, 4.67135906e-02,
          8.55655000e-02, 6.96486309e-02, 7.93986022e-02, 2.17237383e-01,
          3.18864733e-01, 8.43679532e-02, 6.24072133e-03, 3.71409059e-02,
          6.89533576e-02, 6.34642690e-02, 5.89028858e-02, 1.01911709e-01,
          1.75246313e-01, 5.45892641e-02, 0., 0., 7.91447461e-02, 0.,
          8.59627780e-03, 1.08938262e-01, 3.11948806e-01, 1.44647717e-01,
          1.40147835e-01, 1.11155070e-01, 8.10422972e-02, 7.72854611e-02,
          1.18175425e-01, 1.19739965e-01 ]
      - [ 3.49905789e-01, 8.41772631e-02, 1.16772756e-01, 1.11638434e-01,
          6.19178712e-02, 0., 1.13084123e-01, 1.26826987e-01,
          1.55463904e-01, 3.84536274e-02, 4.96092848e-02, 5.06273191e-03,
          1.06524369e-02, 1.24863461e-02, 9.12811682e-02, 1.63367957e-01,
          2.01258302e-01, 1.24266833e-01, 6.02063723e-03, 6.42877538e-03,
          1.43550020e-02, 0., 1.14021227e-01, 1.18063167e-01,
          1.56033888e-01, 1.28884420e-01, 1.17848255e-01, 0.,
          9.10609439e-02, 1.88392818e-01, 1.09600268e-01, 2.21732378e-01,
          1.06810100e-01, 5.68313524e-02, 1.07411541e-01, 1.49310201e-01,
          1.01287723e-01, 1.53793231e-01, 9.91427526e-02, 1.37037084e-01,
          3.08620602e-01, 1.13406911e-01, 1.31222695e-01, 7.69508108e-02,
          6.59034848e-02, 4.19389084e-02, 8.56367499e-02, 1.10448614e-01,
          1.53362915e-01, 4.74040769e-02, 8.78427550e-02, 4.96135913e-02,
          0., 0., 4.69908230e-02, 0., 3.10413957e-01, 1.30460590e-01,
          1.70053884e-01, 8.36475566e-02, 2.84826383e-02, 1.23267733e-01,
          1.20309293e-01, 1.39544696e-01 ]
      - [ 1.99268639e-01, 1.58768713e-01, 1.30900636e-01, 9.91115868e-02,
          1.87006712e-01, 1.37124091e-01, 1.25509635e-01, 0.,
          1.11907735e-01, 7.07570389e-02, 1.51179224e-01, 8.94909874e-02,
          1.07935416e-02, 1.41560614e-01, 1.72422349e-01, 1.47046402e-01,
          2.19381332e-01, 6.82883263e-02, 8.88535082e-02, 6.78608008e-03,
          3.10323462e-02, 1.06792897e-01, 9.03149024e-02, 1.61841959e-01,
          1.33166477e-01, 1.27203941e-01, 1.16028368e-01, 0.,
          5.24037778e-02, 8.57888684e-02, 1.76393196e-01, 2.44714200e-01,
          6.42724559e-02, 1.40031144e-01, 8.09740424e-02, 8.29665735e-02,
          1.58093899e-01, 1.15011819e-01, 1.89199328e-01, 1.23888291e-01,
          2.16799498e-01, 1.23081505e-01, 3.99488918e-02, 0.,
          1.24484472e-01, 9.01508555e-02, 8.61373171e-02, 6.42952919e-02,
          1.28989130e-01, 1.33784905e-01, 4.94455658e-02, 5.83820604e-02,
          7.21034259e-02, 1.01582110e-01, 7.56068826e-02, 1.96758479e-01,
          2.30041772e-01, 1.47198483e-01, 1.14867918e-01, 9.83273461e-02,
          3.89391370e-02, 1.43094748e-01, 5.92048168e-02, 1.18364163e-01 ]
      - [ 2.83627450e-01, 1.55174941e-01, 0., 7.73654133e-02,
          9.21177939e-02, 1.21258996e-01, 1.47186190e-01, 1.48175299e-01,
          1.15709886e-01, 1.46693498e-01, 7.82101527e-02, 4.70671663e-03,
          7.02502429e-02, 0., 1.61892563e-01, 1.39039859e-01,
          1.79588050e-01, 9.91053507e-02, 5.59726078e-03, 3.35716419e-02,
          1.13301268e-02, 6.24434650e-02, 7.45954588e-02, 1.11563310e-01,
          1.56343028e-01, 1.60637021e-01, 7.95862973e-02, 7.41014257e-02,
          9.60248336e-03, 4.29274552e-02, 1.93982124e-01, 2.43212029e-01,
          1.08886205e-01, 1.57704830e-01, 8.00500363e-02, 0.,
          1.56956121e-01, 1.16490081e-01, 1.72436565e-01, 1.91976041e-01,
          1.48938641e-01, 1.75106615e-01, 0., 0., 1.18925653e-01,
          1.21890761e-01, 1.19446553e-01, 6.13137484e-02, 1.29457623e-01,
          7.84291849e-02, 7.45360181e-02, 5.67436442e-02, 6.20930307e-02,
          1.49621099e-01, 9.42814499e-02, 2.38283783e-01, 1.72085747e-01,
          1.24575853e-01, 1.47475809e-01, 7.86140040e-02, 7.41835535e-02,
          1.16626576e-01, 2.03800008e-01, 0. ]
      - [ 2.64783382e-01, 1.91928282e-01, 8.64547864e-02, 1.62112981e-01,
          1.22565024e-01, 1.66254357e-01, 1.41698405e-01, 9.70050544e-02,
          1.21526800e-01, 6.64870292e-02, 9.53065529e-02, 9.86270458e-02,
          9.54762995e-02, 0., 1.71297580e-01, 2.42583454e-01,
          2.10557461e-01, 5.73596433e-02, 8.29473659e-02, 8.49296525e-03,
          6.47513866e-02, 5.80487847e-02, 9.55440626e-02, 1.11037590e-01,
          2.04229325e-01, 1.20904356e-01, 6.16113804e-02, 7.60825574e-02,
          8.94510075e-02, 1.08132519e-01, 2.19139665e-01, 2.60392129e-01,
          4.23855558e-02, 0., 0., 0., 1.39499322e-01, 1.02245405e-01,
          1.13333710e-01, 1.93065524e-01, 2.27171957e-01, 1.70368120e-01,
          4.77787293e-02, 0., 6.00364245e-02, 3.62325013e-02, 0., 0.,
          1.18142612e-01, 0., 1.04126208e-01, 0., 1.32325336e-01,
          9.68596712e-02, 9.90920588e-02, 1.79797456e-01, 1.70310766e-01,
          1.78662494e-01, 1.34955615e-01, 9.86084566e-02, 4.72484604e-02,
          7.23771527e-02, 0., 8.35365802e-02 ]
      - [ 2.53138781e-01, 1.55428559e-01, 1.43846363e-01, 3.62497233e-02,
          1.58203870e-01, 1.40939176e-01, 1.07381716e-01, 9.55749750e-02,
          1.14803150e-01, 3.28528844e-02, 9.71763432e-02, 8.23404491e-02,
          1.05529986e-01, 1.43976184e-02, 1.48681551e-01, 2.26598442e-01,
          2.50224739e-01, 8.79380777e-02, 7.27444980e-03, 7.93225411e-03,
          1.23638716e-02, 5.71966842e-02, 7.84855708e-02, 1.07399434e-01,
          1.49596572e-01, 1.54667467e-01, 1.04629241e-01, 8.90931208e-03,
          1.33076413e-02, 9.24931318e-02, 2.06638917e-01, 2.34385788e-01,
          7.84060657e-02, 0., 0., 8.30649659e-02, 1.43561184e-01,
          8.98824185e-02, 1.92778990e-01, 1.54626757e-01, 1.69076800e-01,
          2.16014326e-01, 7.49261603e-02, 4.68752021e-03, 5.71176969e-02,
          0., 1.09940335e-01, 5.45994006e-02, 1.40349597e-01,
          7.05471188e-02, 7.24353120e-02, 8.76050144e-02, 0.,
          1.04631834e-01, 1.11998707e-01, 2.21917346e-01, 2.26341322e-01,
          1.58657819e-01, 1.60249010e-01, 7.26781711e-02, 5.06154560e-02,
          8.60619843e-02, 5.67349382e-02, 1.43984005e-01 ]
      - [ 2.26309940e-01, 1.24749534e-01, 1.67543575e-01, 1.61902711e-01,
          2.24387497e-01, 1.07288957e-01, 6.74985573e-02, 8.30704048e-02,
          1.02248728e-01, 0., 0., 1.69130743e-01, 1.21918082e-01,
          7.84987956e-02, 1.47901475e-01, 1.95025504e-01, 2.32076749e-01,
          9.77998748e-02, 0., 6.59989752e-03, 9.52111278e-03,
          6.20236248e-02, 5.51177338e-02, 9.31178629e-02, 1.43478721e-01,
          1.64180756e-01, 5.32509089e-02, 0., 5.97150363e-02,
          9.87325087e-02, 1.54940069e-01, 2.81600267e-01, 6.87586516e-02,
          3.31859961e-02, 0., 1.17930293e-01, 1.16872869e-01,
          1.14942670e-01, 1.72602683e-01, 1.26844883e-01, 2.22040892e-01,
          1.58699542e-01, 1.30642578e-01, 5.92605257e-03, 4.65824790e-02,
          0., 8.32401291e-02, 9.21887979e-02, 1.28521636e-01,
          7.40394220e-02, 7.32061639e-02, 1.03619203e-01, 4.30451073e-02,
          1.08111270e-01, 1.11664385e-01, 2.18048707e-01, 2.09549353e-01,
          1.97658703e-01, 1.47035256e-01, 5.95789813e-02, 3.91948670e-02,
          5.90985976e-02, 9.32573602e-02, 6.56604171e-02 ]
      - [ 2.60953933e-01, 1.66510090e-01, 1.61019534e-01, 1.04515180e-01,
          1.76561072e-01, 1.39077604e-01, 1.08548373e-01, 6.88005462e-02,
          9.91798267e-02, 5.88370077e-02, 4.70258296e-02, 1.26204163e-01,
          8.80767927e-02, 9.86510590e-02, 1.42788231e-01, 2.37671643e-01,
          1.94983363e-01, 1.26291543e-01, 0., 5.37704527e-02,
          1.42953461e-02, 4.72570248e-02, 8.91256407e-02, 6.48944452e-02,
          1.32080376e-01, 1.50114536e-01, 4.41653840e-02, 8.52035210e-02,
          1.09095998e-01, 4.27570082e-02, 2.01187581e-01, 2.79992580e-01,
          3.02577727e-02, 0., 0., 0., 1.49587288e-01, 1.68486729e-01,
          1.27214774e-01, 1.60559610e-01, 2.38636896e-01, 1.98323339e-01,
          0., 0., 0., 0., 4.77708019e-02, 7.73040950e-02, 1.09945066e-01,
          4.79008667e-02, 8.42250809e-02, 5.57035506e-02, 8.98488760e-02,
          1.36714920e-01, 8.66353512e-02, 1.55287996e-01, 2.47074962e-01,
          1.80335581e-01, 1.50729790e-01, 7.61670694e-02, 5.33911362e-02,
          9.41988379e-02, 7.93199688e-02, 0. ]
      - [ 2.05343753e-01, 1.85452342e-01, 1.55117884e-01, 1.66768387e-01,
          1.79326639e-01, 1.29184753e-01, 5.68867940e-03, 7.74895027e-02,
          6.87684417e-02, 0., 9.98176411e-02, 1.26586288e-01,
          1.24298349e-01, 1.27609566e-01, 1.52296290e-01, 1.44962743e-01,
          2.52500772e-01, 8.84518847e-02, 8.86496529e-03, 7.93811679e-03,
          1.32918060e-02, 5.28559946e-02, 3.60134803e-02, 8.45840126e-02,
          1.43858671e-01, 1.13338217e-01, 1.00862108e-01, 4.82331477e-02,
          4.62926626e-02, 7.50946924e-02, 1.96520075e-01, 2.31313407e-01,
          1.11072473e-01, 4.35919985e-02, 5.76525964e-02, 8.35782886e-02,
          1.46269590e-01, 1.14702344e-01, 1.88735738e-01, 1.85971007e-01,
          1.95436701e-01, 1.88522741e-01, 8.11716244e-02, 0., 0.,
          3.53328288e-02, 1.01672821e-01, 9.19403359e-02, 1.06689326e-01,
          7.26438537e-02, 8.89168382e-02, 0., 9.82041433e-02,
          1.20500885e-01, 1.08210489e-01, 2.01172024e-01, 2.39971668e-01,
          1.84948072e-01, 1.34239748e-01, 0., 9.99013409e-02,
          5.63997254e-02, 1.50425509e-01, 6.89367950e-02 ]
      - [ 2.05343753e-01, 1.85452342e-01, 1.55117884e-01, 1.66768387e-01,
          1.79326639e-01, 1.29184753e-01, 5.68867940e-03, 7.74895027e-02,
          6.87684417e-02, 0., 9.98176411e-02, 1.26586288e-01,
          1.24298349e-01, 1.27609551e-01, 1.52296290e-01, 1.44962743e-01,
          2.52500772e-01, 8.84518847e-02, 8.86496529e-03, 7.93811679e-03,
          1.32918060e-02, 5.28559946e-02, 3.60134803e-02, 8.45840126e-02,
          1.43858671e-01, 1.13338217e-01, 1.00862108e-01, 4.82331477e-02,
          4.62926626e-02, 7.50946924e-02, 1.96520075e-01, 2.31313407e-01,
          1.11072473e-01, 4.35919985e-02, 5.76525964e-02, 8.35782886e-02,
          1.46269590e-01, 1.14702336e-01, 1.88735738e-01, 1.85971007e-01,
          1.95436686e-01, 1.88522741e-01, 8.11716244e-02, 0., 0.,
          3.53328288e-02, 1.01672821e-01, 9.19403359e-02, 1.06689319e-01,
          7.26438537e-02, 8.89168382e-02, 0., 9.82041433e-02,
          1.20500885e-01, 1.08210489e-01, 2.01172024e-01, 2.39971668e-01,
          1.84948072e-01, 1.34239748e-01, 0., 9.99013409e-02,
          5.63997254e-02, 1.50425509e-01, 6.89367950e-02 ]
      - [ 1.08585946e-01, 1.39725357e-01, 1.28910512e-01, 1.54476225e-01,
          1.83581442e-01, 1.25407338e-01, 9.55917537e-02, 5.26411422e-02,
          9.48955305e-03, 4.19621281e-02, 9.28898826e-02, 1.53297096e-01,
          1.14844121e-01, 1.09457478e-01, 1.08550735e-01, 1.22110054e-01,
          1.52861878e-01, 1.34976715e-01, 7.00832158e-02, 9.15497988e-02,
          6.16483092e-02, 8.06629881e-02, 7.53748640e-02, 2.05342695e-01,
          1.17629938e-01, 7.29924962e-02, 7.65036345e-02, 5.21488301e-02,
          3.35755944e-02, 1.47603676e-01, 1.88741073e-01, 2.47676924e-01,
          8.77185017e-02, 1.11448616e-01, 9.89491567e-02, 5.17434254e-02,
          2.57360786e-01, 1.13471203e-01, 1.50022969e-01, 9.30199176e-02,
          1.25993043e-01, 1.78618193e-01, 8.66887569e-02, 8.62329006e-02,
          1.06350094e-01, 1.02116086e-01, 1.05889320e-01, 9.57600325e-02,
          1.26867726e-01, 1.58614367e-01, 6.38911203e-02, 1.13495536e-01,
          8.64793509e-02, 1.31347626e-01, 1.40132755e-01, 1.56172380e-01,
          2.13817745e-01, 1.89703241e-01, 1.16669379e-01, 7.62823969e-02,
          8.58881921e-02, 9.89171267e-02, 1.36536002e-01, 9.35625434e-02 ]
      - [ 2.10308075e-01, 1.35332331e-01, 1.12564519e-01, 1.38926104e-01,
          1.30668059e-01, 1.19871125e-01, 1.09905042e-01, 7.14263543e-02,
          1.80290431e-01, 7.71366432e-02, 8.87829363e-02, 6.31360263e-02,
          1.27121702e-01, 1.29408911e-01, 1.65531039e-01, 1.51736349e-01,
          1.91755667e-01, 1.12817600e-01, 5.06705642e-02, 8.31956938e-02,
          9.17851645e-03, 0., 1.14724524e-01, 7.29818270e-02,
          1.16079777e-01, 1.92514747e-01, 9.38831493e-02, 0.,
          1.02279313e-01, 1.11904271e-01, 1.49326891e-01, 2.04762518e-01,
          1.52993649e-01, 5.77223264e-02, 7.76978806e-02, 0.,
          1.31886706e-01, 1.23144723e-01, 1.38578594e-01, 1.83634609e-01,
          1.74810767e-01, 1.86884940e-01, 1.42665073e-01, 8.34027901e-02,
          7.39818215e-02, 1.17799148e-01, 1.14871770e-01, 1.30422443e-01,
          1.20630167e-01, 7.87152275e-02, 1.27711415e-01, 8.87395516e-02,
          7.16420859e-02, 1.17025517e-01, 1.19970828e-01, 6.87931255e-02,
          2.05380484e-01, 1.69455111e-01, 1.97260737e-01, 4.28977050e-02,
          1.11691415e-01, 9.05658081e-02, 1.27650633e-01, 8.34897757e-02 ]
      - [ 2.54369527e-01, 1.31773472e-01, 1.11063898e-01, 1.08115025e-01,
          9.02796909e-02, 1.25339508e-01, 1.47420406e-01, 7.52708688e-02,
          1.02429137e-01, 9.47352350e-02, 1.19717292e-01, 6.92235753e-02,
          1.34190127e-01, 3.83305289e-02, 1.66777790e-01, 1.83815122e-01,
          1.41780198e-01, 1.49611413e-01, 1.14702091e-01, 8.95754173e-02,
          6.81119636e-02, 0., 1.22691154e-01, 1.05894260e-01,
          1.72301322e-01, 1.47823676e-01, 0., 1.04857162e-01,
          6.87230751e-02, 1.05446652e-01, 1.80083632e-01, 2.65434563e-01,
          6.13763556e-02, 1.15202099e-01, 0., 8.80008787e-02,
          1.89679980e-01, 8.90948176e-02, 2.24637643e-01, 1.06188498e-01,
          1.20094337e-01, 1.74835995e-01, 1.42033428e-01, 1.25797972e-01,
          7.42917731e-02, 9.44731086e-02, 0., 1.25514910e-01,
          8.98085162e-02, 0., 1.09674081e-01, 8.35131779e-02,
          2.67745517e-02, 7.27637038e-02, 9.89863276e-02, 1.21265732e-01,
          2.49212146e-01, 1.51366234e-01, 1.04497559e-01, 1.12699509e-01,
          1.25401035e-01, 9.94657129e-02, 6.80087209e-02, 9.51528996e-02 ]
      - [ 2.16800541e-01, 1.70352384e-01, 1.57319844e-01, 1.48282021e-01,
          1.08598836e-01, 1.48547038e-01, 9.94739085e-02, 0.,
          5.40741980e-02, 6.39748797e-02, 1.21942237e-01, 9.73282158e-02,
          1.32323846e-01, 1.15209356e-01, 2.01498717e-01, 9.71912667e-02,
          2.49909744e-01, 1.23928219e-01, 9.62828100e-02, 6.98539391e-02,
          9.57565829e-02, 8.23967624e-03, 1.58034563e-01, 7.92174935e-02,
          1.13183722e-01, 1.31347716e-01, 8.18934888e-02, 8.79657865e-02,
          4.21748161e-02, 1.23139694e-01, 2.14018688e-01, 1.44264430e-01,
          1.16256125e-01, 6.29512370e-02, 0., 6.97049275e-02,
          1.99419349e-01, 1.73732564e-01, 1.98195353e-01, 7.80247897e-02,
          1.82668522e-01, 1.55050546e-01, 1.37945920e-01, 1.31982848e-01,
          4.90146838e-02, 9.66563895e-02, 6.12036698e-02, 0.,
          8.45552012e-02, 1.16263457e-01, 6.61622062e-02, 6.87343925e-02,
          7.50402808e-02, 6.19223267e-02, 1.59623981e-01, 1.89091727e-01,
          2.11013913e-01, 1.39855847e-01, 1.05177253e-01, 1.03004448e-01,
          8.60680193e-02, 5.96266873e-02, 1.28772587e-01, 0. ]
      - [ 2.21008509e-01, 1.68009266e-01, 1.06974527e-01, 8.91939849e-02,
          1.33166537e-01, 7.31126815e-02, 1.68754503e-01, 8.58562216e-02,
          1.10098630e-01, 8.70511979e-02, 8.90922844e-02, 1.05193414e-01,
          8.14540312e-02, 1.22700341e-01, 1.46434605e-01, 1.19466931e-01,
          1.77183509e-01, 1.94045201e-01, 6.90412428e-03, 5.79898693e-02,
          4.56674509e-02, 5.66055700e-02, 6.49771169e-02, 1.87659711e-01,
          1.35263190e-01, 1.33409813e-01, 8.70336518e-02, 7.35387430e-02,
          1.31244818e-02, 1.61756292e-01, 1.76002875e-01, 1.52255461e-01,
          1.00748681e-01, 9.99955982e-02, 1.25947013e-01, 1.23163596e-01,
          1.31113157e-01, 1.60767838e-01, 1.88099444e-01, 1.64669186e-01,
          1.49268359e-01, 1.60252899e-01, 5.42146564e-02, 5.98021038e-02,
          8.28037187e-02, 5.60207032e-02, 1.34016797e-01, 1.31964192e-01,
          1.47690177e-01, 1.03115030e-01, 6.04639342e-03, 3.76543850e-02,
          4.95651513e-02, 1.04814120e-01, 1.55280173e-01, 1.01228520e-01,
          2.46587157e-01, 1.34690538e-01, 1.00117072e-01, 1.39508426e-01,
          1.00727111e-01, 1.24079041e-01, 1.12721704e-01, 1.29569769e-01 ]
      - [ 1.85281232e-01, 1.55043811e-01, 1.40832543e-01, 1.87868878e-01,
          1.49531737e-01, 1.27496585e-01, 1.02438062e-01, 0.,
          1.01268150e-01, 9.22950655e-02, 1.02580681e-01, 1.57754481e-01,
          1.67330354e-01, 1.24516487e-01, 1.21968910e-01, 1.17156103e-01,
          1.77447617e-01, 9.00107846e-02, 7.79509768e-02, 1.20955005e-01,
          8.96691978e-02, 4.34124880e-02, 1.21899322e-01, 1.35894880e-01,
          1.65482581e-01, 1.23285651e-01, 5.02567664e-02, 8.12661648e-02,
          4.58108336e-02, 8.82772654e-02, 1.77138582e-01, 2.29890421e-01,
          1.31332397e-01, 3.67887765e-02, 1.10424452e-01, 1.08792484e-01,
          1.91190869e-01, 1.25957176e-01, 1.41246527e-01, 1.37349308e-01,
          1.90181017e-01, 1.30180717e-01, 1.45982504e-01, 7.10490569e-02,
          1.09572902e-01, 9.05698761e-02, 1.08841315e-01, 6.81546703e-02,
          1.06480986e-01, 7.33724684e-02, 1.02548614e-01, 2.98465565e-02,
          1.02131777e-01, 1.19788304e-01, 1.50596067e-01, 1.34463027e-01,
          1.87402755e-01, 1.50455907e-01, 7.47907534e-02, 6.27617165e-02,
          1.02207772e-01, 1.39037564e-01, 9.78317112e-02, 1.06665373e-01 ]
      - [ 1.84769467e-01, 1.15128472e-01, 1.87890321e-01, 1.19080551e-01,
          9.10977945e-02, 1.93734199e-01, 1.16538711e-01, 8.94581154e-02,
          1.03346162e-01, 1.15182392e-01, 8.67626742e-02, 1.15825735e-01,
          1.29647091e-01, 1.44228369e-01, 1.83759071e-02, 2.10323274e-01,
          1.70226395e-01, 9.03033987e-02, 1.48554787e-01, 1.16636120e-01,
          7.33682737e-02, 4.31129821e-02, 1.09096646e-01, 1.38948768e-01,
          2.04848662e-01, 1.08549669e-01, 4.19976003e-02, 4.12978325e-03,
          9.07102004e-02, 1.46039620e-01, 1.30399585e-01, 2.53586322e-01,
          7.34414458e-02, 6.22512139e-02, 4.56574857e-02, 1.62436962e-01,
          1.82398617e-01, 1.58694014e-01, 7.56650046e-02, 1.49494439e-01,
          1.28028378e-01, 1.56515524e-01, 4.53984365e-02, 1.34653360e-01,
          8.23596641e-02, 6.26910552e-02, 4.27850708e-02, 1.03530534e-01,
          8.76359418e-02, 5.96193559e-02, 7.50550702e-02, 1.12754293e-01,
          5.21887392e-02, 1.31175056e-01, 4.82695736e-02, 1.97821751e-01,
          2.01538056e-01, 1.38143450e-01, 1.15156703e-01, 1.06241226e-01,
          8.19860771e-02, 1.22548506e-01, 8.86334851e-02, 1.32494524e-01 ]
      - [ 2.30055228e-01, 1.59521028e-01, 1.11113347e-01, 1.07622817e-01,
          9.61380154e-02, 6.98370039e-02, 1.04811639e-01, 1.38600409e-01,
          1.18082091e-01, 7.21520707e-02, 1.21542610e-01, 7.20398873e-02,
          9.12165344e-02, 8.63355175e-02, 1.85346216e-01, 2.01785073e-01,
          1.99278623e-01, 1.67583242e-01, 1.87266897e-02, 7.43811484e-03,
          1.67992078e-02, 1.36532560e-01, 1.31879568e-01, 1.59115016e-01,
          8.35826844e-02, 1.76957086e-01, 1.04151823e-01, 7.86484871e-03,
          1.25482781e-02, 1.60173118e-01, 1.59449503e-01, 2.34408617e-01,
          7.70187974e-02, 8.96159783e-02, 6.03533499e-02, 5.64636104e-02,
          1.60293370e-01, 1.43478274e-01, 1.71302706e-01, 1.11464411e-01,
          2.48079419e-01, 1.53668240e-01, 1.00108318e-01, 7.96085596e-02,
          4.43374515e-02, 5.57723567e-02, 9.73136500e-02, 1.13253057e-01,
          1.41415298e-01, 7.87134096e-02, 0., 6.51041269e-02,
          8.03185180e-02, 7.30474144e-02, 1.20956369e-01, 1.21853940e-01,
          2.26602644e-01, 1.54840305e-01, 1.11534715e-01, 9.79568884e-02,
          9.48505178e-02, 8.75642076e-02, 3.88690457e-02, 1.15035273e-01 ]
      - [ 1.71952248e-01, 1.36062190e-01, 1.54477671e-01, 1.05156109e-01,
          1.54106393e-01, 9.66256335e-02, 1.29516870e-01, 1.12592623e-01,
          1.12125590e-01, 6.14201725e-02, 1.06617257e-01, 1.03752986e-01,
          1.30806863e-01, 0., 1.10898957e-01, 2.18893498e-01,
          1.77178457e-01, 1.42622530e-01, 0., 0., 8.27212259e-02,
          5.48412912e-02, 1.28492802e-01, 1.47272348e-01, 1.91248417e-01,
          1.06451102e-01, 7.62346610e-02, 0., 3.70016359e-02,
          1.13540605e-01, 1.86287358e-01, 2.25437313e-01, 1.19212888e-01,
          5.46516031e-02, 9.60408524e-02, 6.44296035e-02, 1.86375275e-01,
          1.54051661e-01, 1.33998916e-01, 1.76654190e-01, 1.49974957e-01,
          1.60628706e-01, 1.44956514e-01, 6.09382801e-02, 5.52596524e-02,
          4.00072597e-02, 1.35383338e-01, 1.32704526e-01, 1.28396779e-01,
          9.51457471e-02, 1.01262793e-01, 6.14607297e-02, 1.01884477e-01,
          1.27805069e-01, 5.70796095e-02, 1.43171251e-01, 2.17593566e-01,
          1.65050760e-01, 8.28691125e-02, 1.43391073e-01, 1.05852358e-01,
          4.97240908e-02, 8.96551162e-02, 1.40652254e-01 ]
      - [ 1.77178666e-01, 2.09521979e-01, 1.82297394e-01, 1.23517007e-01,
          1.45027995e-01, 1.32542640e-01, 1.23848587e-01, 7.22564682e-02,
          8.69537592e-02, 0., 8.10168684e-02, 1.38292715e-01,
          1.06846146e-01, 9.37492624e-02, 1.30820855e-01, 1.54380113e-01,
          1.68809384e-01, 9.04188678e-02, 1.37692705e-01, 3.07195615e-02,
          9.12974849e-02, 9.30056050e-02, 9.02564004e-02, 1.11427948e-01,
          1.66417390e-01, 1.14136875e-01, 1.16283216e-01, 4.61578332e-02,
          9.45849568e-02, 1.69128120e-01, 1.66409478e-01, 2.36580968e-01,
          9.98965427e-02, 2.27761138e-02, 4.98487614e-02, 1.02207497e-01,
          2.43662357e-01, 1.12019353e-01, 1.75589412e-01, 1.55419335e-01,
          1.14101179e-01, 1.70602843e-01, 1.20293289e-01, 7.97128901e-02,
          7.83357546e-02, 4.12870012e-02, 4.71346341e-02, 8.74467343e-02,
          1.03176408e-01, 1.32515639e-01, 5.39607368e-02, 5.72956093e-02,
          8.40978324e-02, 1.41826853e-01, 5.66050634e-02, 1.35172233e-01,
          2.10138306e-01, 1.91156983e-01, 1.23225361e-01, 8.21190178e-02,
          9.64887142e-02, 6.77992329e-02, 8.53384137e-02, 1.14334449e-01 ]
      - [ 1.16608396e-01, 1.82067201e-01, 1.28541782e-01, 1.39972359e-01,
          1.40134275e-01, 1.57790691e-01, 8.42777416e-02, 8.44419450e-02,
          4.15670462e-02, 1.17844723e-01, 1.32419586e-01, 9.97470245e-02,
          6.86113164e-02, 8.65558088e-02, 1.33877605e-01, 1.39764547e-01,
          2.59623289e-01, 1.04349978e-01, 0., 1.08788677e-01,
          1.02012299e-01, 1.44504577e-01, 7.42742196e-02, 5.97048141e-02,
          1.23629786e-01, 1.53898269e-01, 6.05037548e-02, 6.46311343e-02,
          7.89766386e-02, 1.03563242e-01, 1.96711034e-01, 1.25993073e-01,
          9.73085389e-02, 1.10872217e-01, 1.35871723e-01, 6.94902539e-02,
          2.30336905e-01, 1.49587944e-01, 2.05177411e-01, 6.24039322e-02,
          1.17508516e-01, 1.79684132e-01, 5.16016409e-02, 9.26478133e-02,
          1.44813061e-01, 5.70206828e-02, 1.19718030e-01, 9.49302018e-02,
          1.10327251e-01, 1.02138124e-01, 1.10244252e-01, 5.66613190e-02,
          1.45463496e-01, 1.05079837e-01, 1.15521803e-01, 1.22997105e-01,
          2.52898335e-01, 8.43424872e-02, 1.43153489e-01, 1.56755954e-01,
          1.13990948e-01, 5.43045066e-02, 1.01547629e-01, 6.60251975e-02 ]
      - [ 2.61009395e-01, 1.16916850e-01, 1.24913633e-01, 1.34398803e-01,
          1.17452994e-01, 1.47139549e-01, 9.81275290e-02, 5.91405556e-02,
          1.13778196e-01, 5.98924942e-02, 0., 5.91477454e-02,
          1.01930678e-01, 6.43075481e-02, 8.38038325e-02, 2.16908351e-01,
          2.54877090e-01, 8.21626559e-03, 5.77717274e-02, 8.04440118e-03,
          1.53991571e-02, 5.92412241e-03, 1.33403596e-02, 5.94732724e-02,
          9.53827053e-02, 1.03273563e-01, 1.42546058e-01, 5.64840548e-02,
          5.88092320e-02, 7.90770948e-02, 2.31201500e-01, 1.84188947e-01,
          1.19234934e-01, 6.15353286e-02, 1.26433596e-01, 9.49599445e-02,
          1.63243428e-01, 1.70830652e-01, 2.01835483e-01, 1.69173449e-01,
          1.96822718e-01, 1.95100233e-01, 5.12941405e-02, 0.,
          6.86186459e-03, 0., 1.26972005e-01, 1.09874517e-01,
          8.60467553e-02, 8.02560300e-02, 0., 4.98157321e-03,
          3.73319574e-02, 8.28297213e-02, 1.01641022e-01, 1.11513451e-01,
          2.73403376e-01, 2.24022895e-01, 1.86377585e-01, 6.54582381e-02,
          1.16100848e-01, 1.26685828e-01, 1.02371305e-01, 9.91282687e-02 ]
      - [ 3.12461197e-01, 1.27500623e-01, 1.40558437e-01, 1.28474817e-01,
          8.48951712e-02, 1.36148304e-01, 6.01853170e-02, 0.,
          9.03772190e-02, 5.45721129e-02, 6.36893958e-02, 1.08370058e-01,
          8.66851360e-02, 1.20974571e-01, 8.19713250e-02, 1.85403556e-01,
          2.16275528e-01, 8.11297745e-02, 0., 2.91875135e-02,
          9.12017655e-03, 1.19882226e-02, 4.63811979e-02, 4.62266617e-02,
          9.71323699e-02, 1.05440639e-01, 1.30769536e-01, 1.15221448e-01,
          9.73469466e-02, 9.55246985e-02, 1.85938507e-01, 2.81813681e-01,
          1.04559861e-01, 6.65461421e-02, 6.95693716e-02, 5.12865232e-03,
          1.20892860e-01, 1.74219936e-01, 1.80233821e-01, 1.96025938e-01,
          2.02933341e-01, 2.14926779e-01, 8.12699050e-02, 7.66912382e-03,
          1.51204802e-02, 4.97536436e-02, 7.57950619e-02, 3.35614905e-02,
          6.96962923e-02, 6.44711405e-02, 9.85790975e-03, 8.67874082e-03,
          1.15362117e-02, 7.30815902e-02, 1.50368646e-01, 1.45075276e-01,
          2.51034290e-01, 1.80469230e-01, 2.06170663e-01, 1.36128694e-01,
          1.02558963e-01, 1.11909308e-01, 5.38985543e-02, 8.62390846e-02 ]
      - [ 1.80928737e-01, 1.46157220e-01, 1.94424480e-01, 1.35602191e-01,
          5.97272553e-02, 1.51634783e-01, 6.60290197e-02, 1.24327302e-01,
          9.85907689e-02, 6.28943071e-02, 8.58934969e-02, 7.76386186e-02,
          1.73353165e-01, 1.19041868e-01, 1.20767802e-01, 1.15647770e-01,
          1.61125600e-01, 1.40958324e-01, 1.26622505e-02, 5.07344492e-03,
          2.37267148e-02, 7.58273974e-02, 1.09679759e-01, 0.,
          2.30332151e-01, 1.18471749e-01, 9.12950635e-02, 9.23166126e-02,
          8.63584224e-03, 1.39577970e-01, 1.85078770e-01, 1.71450689e-01,
          1.03943944e-01, 1.21566430e-01, 1.13078542e-01, 7.32220858e-02,
          2.23585710e-01, 1.73377171e-01, 1.15424119e-01, 1.27335995e-01,
          1.64473236e-01, 1.83058709e-01, 1.69372261e-01, 7.71139935e-02,
          0., 8.92997459e-02, 1.42677501e-01, 8.19948688e-02,
          1.50821730e-01, 5.81055135e-02, 6.15622923e-02, 0.,
          1.20387331e-01, 4.80767339e-02, 1.22328877e-01, 1.83035195e-01,
          1.16081685e-01, 1.73177212e-01, 1.18633099e-01, 1.07813664e-01,
          1.32048219e-01, 7.97227994e-02, 1.34594023e-01, 1.50795490e-01 ]
      - [ 2.32726634e-01, 1.52285710e-01, 1.34642243e-01, 1.68547764e-01,
          1.49010584e-01, 1.12994879e-01, 1.12498775e-01, 6.03362657e-02,
          1.07463084e-01, 7.36903101e-02, 1.17853962e-01, 1.29577905e-01,
          7.53346831e-02, 1.39198735e-01, 1.39975265e-01, 1.84380516e-01,
          2.26173997e-01, 1.30589277e-01, 6.24423511e-02, 1.25222832e-01,
          5.13459593e-02, 5.44768795e-02, 1.03947617e-01, 1.16816930e-01,
          1.16049990e-01, 1.81755513e-01, 3.52907367e-02, 0.,
          1.47941738e-01, 1.31800666e-01, 1.92551538e-01, 1.27111867e-01,
          5.70416898e-02, 9.83401090e-02, 0., 8.39559212e-02,
          1.84407100e-01, 1.21107273e-01, 1.98862016e-01, 1.31824255e-01,
          1.99395165e-01, 1.63131833e-01, 3.83839309e-02, 6.14537597e-02,
          8.47472250e-02, 7.85363838e-02, 7.76748061e-02, 7.37170056e-02,
          1.03168689e-01, 7.10937604e-02, 8.77738073e-02, 8.22738633e-02,
          5.20300530e-02, 1.09443508e-01, 1.54758841e-01, 7.38231540e-02,
          1.97133198e-01, 1.52016267e-01, 1.46942720e-01, 1.39509261e-01,
          1.50890887e-01, 7.48499483e-02, 4.69605587e-02, 1.02925152e-01 ]
      - [ 1.82047129e-01, 2.22670734e-01, 1.10964261e-01, 1.64208770e-01,
          1.53639868e-01, 1.23105101e-01, 9.62893888e-02, 5.83881773e-02,
          9.57112163e-02, 3.75631750e-02, 1.11945279e-01, 1.42933622e-01,
          1.26518309e-01, 1.47673562e-01, 1.19866647e-01, 1.34826630e-01,
          1.54635489e-01, 1.53090045e-01, 5.98131120e-02, 3.71533073e-02,
          8.24744031e-02, 5.43557890e-02, 1.39405102e-01, 1.04330637e-01,
          2.06936300e-01, 1.22252375e-01, 8.24124962e-02, 4.89867963e-02,
          3.76067981e-02, 1.26966879e-01, 1.97939500e-01, 2.69903928e-01,
          9.40158069e-02, 6.80657402e-02, 5.48362248e-02, 1.42611563e-01,
          1.13169007e-01, 1.73833907e-01, 1.37068748e-01, 1.50549725e-01,
          1.75384641e-01, 1.69719324e-01, 9.61243063e-02, 5.50827980e-02,
          1.19892448e-01, 0., 8.79556835e-02, 3.22751962e-02,
          9.95128825e-02, 9.51313451e-02, 5.71933389e-02, 3.69209908e-02,
          8.37065056e-02, 1.43857196e-01, 7.39984959e-02, 1.13639243e-01,
          2.32660055e-01, 1.59446165e-01, 8.35826620e-02, 1.34943649e-01,
          1.04458682e-01, 4.61880676e-02, 9.12147611e-02, 1.08074434e-01 ]
      - [ 2.40345672e-01, 1.37619153e-01, 6.62894398e-02, 1.32336378e-01,
          1.12339482e-01, 1.10320367e-01, 1.28690958e-01, 7.61165246e-02,
          1.15859494e-01, 1.33293808e-01, 9.15136337e-02, 8.16752240e-02,
          1.02766663e-01, 9.54936668e-02, 1.46660686e-01, 1.98478326e-01,
          2.05374122e-01, 1.02175988e-01, 7.86107555e-02, 5.86404279e-02,
          1.32864565e-02, 8.91685206e-03, 8.19540098e-02, 8.13832358e-02,
          1.51194766e-01, 1.34555414e-01, 1.28150374e-01, 6.66148812e-02,
          7.04115927e-02, 1.63954601e-01, 2.02739701e-01, 1.55586571e-01,
          1.51593462e-01, 7.64630660e-02, 6.98923916e-02, 7.81598762e-02,
          0., 6.67253062e-02, 1.89647302e-01, 1.31459892e-01,
          2.54888207e-01, 1.84283376e-01, 6.52169585e-02, 7.09131137e-02,
          9.93170142e-02, 1.42402530e-01, 8.81539807e-02, 1.20522171e-01,
          1.05552129e-01, 8.47247317e-02, 8.38717371e-02, 4.70745936e-02,
          0., 1.42516106e-01, 1.27453193e-01, 1.06974028e-01,
          2.06733882e-01, 1.79482728e-01, 1.71987668e-01, 1.14267424e-01,
          7.02753961e-02, 1.03883237e-01, 1.04001887e-01, 1.21407196e-01 ]
      - [ 1.68933406e-01, 2.34049261e-01, 1.45610586e-01, 1.57174304e-01,
          1.52092025e-01, 1.01848170e-01, 1.45756707e-01, 0.,
          8.65096077e-02, 9.74238217e-02, 1.04544148e-01, 7.70164430e-02,
          1.16575398e-01, 1.37691215e-01, 1.76497936e-01, 8.79111141e-02,
          2.76577264e-01, 1.45563096e-01, 6.65480420e-02, 6.08239211e-02,
          1.07137850e-02, 6.16821013e-02, 1.22580968e-01, 1.02973923e-01,
          1.82524383e-01, 1.13763370e-01, 1.23383999e-01, 8.60006809e-02,
          8.31136853e-02, 1.17947862e-01, 1.72228172e-01, 1.69829428e-01,
          9.68680084e-02, 0., 7.47404322e-02, 1.05679192e-01,
          1.91580668e-01, 1.72085345e-01, 1.76818222e-01, 9.43737775e-02,
          1.34412736e-01, 1.95276707e-01, 5.06623611e-02, 5.57448789e-02,
          1.01131290e-01, 6.12576306e-02, 4.12490368e-02, 7.65430108e-02,
          1.04231305e-01, 4.64441776e-02, 8.38829353e-02, 1.10030241e-01,
          1.15503088e-01, 5.59593476e-02, 1.37374595e-01, 1.08657204e-01,
          2.09629357e-01, 1.81831360e-01, 9.87280086e-02, 1.06636621e-01,
          1.12809859e-01, 8.76311511e-02, 1.11550897e-01, 2.94965580e-02 ]
      - [ 2.88802713e-01, 1.25000566e-01, 1.24060228e-01, 7.03959838e-02,
          1.43442675e-01, 1.11951165e-01, 9.13553759e-02, 1.00828290e-01,
          1.30658478e-01, 9.52279121e-02, 1.27289623e-01, 1.10947669e-01,
          9.15182680e-02, 8.27395245e-02, 1.72970742e-01, 1.63075119e-01,
          1.38305545e-01, 1.84722334e-01, 7.19083520e-03, 2.73726173e-02,
          9.00138766e-02, 0., 6.10476173e-02, 1.51510656e-01,
          1.78540081e-01, 1.44857287e-01, 1.04072057e-01, 4.63364040e-03,
          6.18300475e-02, 8.17610025e-02, 2.18411088e-01, 2.54566610e-01,
          1.16007440e-01, 0., 0., 1.00233719e-01, 8.34625661e-02,
          1.30549639e-01, 1.94002122e-01, 1.40041307e-01, 1.53824702e-01,
          1.64199337e-01, 1.62485391e-01, 5.98808378e-02, 1.07487127e-01,
          8.78833830e-02, 0., 2.89797857e-02, 1.44913495e-01,
          4.77124304e-02, 5.86084314e-02, 1.15208946e-01, 7.95769095e-02,
          8.52600411e-02, 1.14994526e-01, 1.72943667e-01, 2.16305166e-01,
          1.35599524e-01, 1.55029371e-01, 1.14324845e-01, 7.82138184e-02,
          0., 8.16542804e-02, 9.88758057e-02 ]
      - [ 2.06820816e-01, 1.29071817e-01, 1.57859460e-01, 9.64755863e-02,
          9.76340920e-02, 1.80934221e-01, 1.26317546e-01, 4.86959554e-02,
          1.35970965e-01, 8.94776061e-02, 1.05692789e-01, 1.21268682e-01,
          1.31255746e-01, 8.03296342e-02, 1.29277796e-01, 1.09996945e-01,
          2.19661936e-01, 1.14080749e-01, 1.26977667e-01, 7.68963695e-02,
          6.22194037e-02, 1.02614738e-01, 8.52356851e-02, 3.24412957e-02,
          1.81239977e-01, 1.36855185e-01, 1.04837805e-01, 8.97534862e-02,
          3.96828465e-02, 1.08509243e-01, 2.04587162e-01, 1.12559900e-01,
          1.57808378e-01, 1.22113511e-01, 8.60649720e-02, 1.24706276e-01,
          1.69282690e-01, 1.61503106e-01, 1.24324106e-01, 1.48943588e-01,
          1.63113400e-01, 1.57043844e-01, 1.18205853e-01, 7.22712949e-02,
          8.14216658e-02, 1.19217791e-01, 1.10776670e-01, 7.92187303e-02,
          1.27321050e-01, 2.89959856e-03, 1.51086807e-01, 7.20524937e-02,
          9.64645669e-02, 1.17911741e-01, 8.95010978e-02, 1.21463075e-01,
          2.41498992e-01, 1.00878857e-01, 1.27520993e-01, 8.97985175e-02,
          1.41649827e-01, 1.26134634e-01, 1.00049585e-01, 4.82763797e-02 ]
      - [ 2.44422570e-01, 1.85661748e-01, 1.36620983e-01, 1.42354965e-01,
          1.84274390e-01, 1.77481994e-01, 6.19260222e-02, 7.81602934e-02,
          8.25757533e-02, 5.21483198e-02, 0., 1.78854674e-01,
          1.30995572e-01, 9.96932238e-02, 1.40768841e-01, 1.76705390e-01,
          1.74589008e-01, 1.35968193e-01, 1.09252058e-01, 6.34255111e-02,
          3.22212763e-02, 7.98846856e-02, 1.04936868e-01, 8.39047059e-02,
          1.24392137e-01, 1.03831463e-01, 6.71557710e-02, 1.03205413e-01,
          2.59600990e-02, 1.28338009e-01, 2.55441666e-01, 2.03554437e-01,
          6.87695816e-02, 6.36114627e-02, 0., 0., 1.51163682e-01,
          1.66068554e-01, 1.84355959e-01, 1.47134826e-01, 1.79976568e-01,
          1.72547370e-01, 1.03677057e-01, 6.58248290e-02, 3.11178323e-02,
          3.44910882e-02, 0., 4.76384163e-02, 6.18540421e-02,
          6.81277215e-02, 0., 3.60265970e-02, 4.29806300e-02,
          1.51772141e-01, 1.12988368e-01, 1.55069873e-01, 2.41935864e-01,
          1.24493748e-01, 1.52384982e-01, 1.34630486e-01, 9.02760848e-02,
          9.39310342e-02, 1.14801556e-01, 5.13886213e-02 ]
      - [ 1.86194628e-01, 1.90581501e-01, 2.37451524e-01, 1.90034851e-01,
          9.67623293e-02, 1.09025165e-01, 1.47416145e-01, 8.59643966e-02,
          8.22986960e-02, 8.24058503e-02, 7.70920962e-02, 5.67379370e-02,
          1.17410064e-01, 1.63853422e-01, 1.76881254e-01, 1.07506603e-01,
          2.07396090e-01, 1.93403259e-01, 5.64950705e-02, 7.20422342e-02,
          4.31565531e-02, 7.49329180e-02, 7.98475742e-02, 9.69355553e-02,
          1.16689257e-01, 1.44492909e-01, 8.22922662e-02, 6.48305640e-02,
          9.36432779e-02, 8.06434005e-02, 2.31381372e-01, 2.23211661e-01,
          2.03989353e-02, 7.63726085e-02, 0., 1.10104322e-01,
          1.86849222e-01, 1.67055249e-01, 1.78498924e-01, 1.27373114e-01,
          1.16612658e-01, 1.77453518e-01, 1.18829362e-01, 5.32364026e-02,
          3.84960026e-02, 0., 2.68637612e-02, 0., 8.93069431e-02, 0.,
          5.71641475e-02, 0., 9.76806656e-02, 8.81515443e-02,
          8.64866301e-02, 2.25629345e-01, 2.43678138e-01, 1.32916778e-01,
          1.32712185e-01, 1.10081121e-01, 3.89064439e-02, 0.,
          8.65516365e-02, 8.68172571e-02 ]
      - [ 1.79173753e-01, 1.13336951e-01, 9.27520618e-02, 1.17669053e-01,
          1.50262982e-01, 1.23686627e-01, 7.48476237e-02, 1.56988606e-01,
          9.01839733e-02, 7.81778172e-02, 7.27089494e-02, 1.12965263e-01,
          1.33226449e-02, 1.38705924e-01, 1.76972613e-01, 1.14487387e-01,
          1.47129133e-01, 1.66409612e-01, 5.43048419e-02, 4.48491946e-02,
          4.34350930e-02, 7.63935735e-03, 1.17021985e-01, 1.20419100e-01,
          7.81790391e-02, 1.05902053e-01, 1.48241386e-01, 7.13096187e-02,
          8.33113492e-02, 1.75588965e-01, 1.57321960e-01, 1.55884907e-01,
          1.71411544e-01, 1.02428682e-01, 1.28826842e-01, 9.19068083e-02,
          9.25718620e-02, 1.88672483e-01, 1.22705020e-01, 1.15479462e-01,
          1.67303100e-01, 1.82279393e-01, 1.42467648e-01, 1.59514919e-01,
          1.58121943e-01, 1.25855371e-01, 1.21650063e-01, 7.06579536e-02,
          1.13293089e-01, 1.00451142e-01, 8.17246735e-02, 6.60438985e-02,
          1.10892214e-01, 1.15338616e-01, 1.36869743e-01, 1.46044493e-01,
          1.96971551e-01, 1.48227185e-01, 1.34700850e-01, 1.17657512e-01,
          1.27390921e-01, 9.79457870e-02, 1.14177868e-01, 1.27985314e-01 ]
      - [ 2.42922276e-01, 1.06826358e-01, 8.01870525e-02, 1.28432274e-01,
          1.57259062e-01, 0., 1.07458033e-01, 1.48965478e-01,
          1.37127101e-01, 5.34372330e-02, 1.05081670e-01, 1.32246226e-01,
          1.09976195e-01, 1.36520162e-01, 8.29583779e-02, 2.09850118e-01,
          1.85692281e-01, 1.21889032e-01, 9.66591239e-02, 5.83755299e-02,
          4.95773517e-02, 4.35992256e-02, 8.14899132e-02, 1.78090602e-01,
          1.46751061e-01, 1.36873439e-01, 1.35094434e-01, 4.94875871e-02,
          1.31052006e-02, 9.28644389e-02, 1.76417172e-01, 2.37782612e-01,
          9.01803300e-02, 8.20027888e-02, 8.10179114e-02, 9.71735716e-02,
          1.59127355e-01, 1.18492737e-01, 1.51977509e-01, 1.74505442e-01,
          1.55901328e-01, 7.96612799e-02, 1.67650983e-01, 1.45103008e-01,
          1.66776597e-01, 9.02012885e-02, 8.10634792e-02, 9.85810161e-02,
          8.25288445e-02, 1.19260527e-01, 5.29644415e-02, 9.58766416e-02,
          9.05203521e-02, 9.62653086e-02, 1.14252463e-01, 1.56192869e-01,
          1.56652197e-01, 1.67257920e-01, 9.56406966e-02, 1.31229579e-01,
          8.53643939e-02, 1.19701430e-01, 7.75097758e-02, 6.18891455e-02 ]
      - [ 2.46852592e-01, 1.29365474e-01, 1.69540077e-01, 1.44967198e-01,
          1.49100706e-01, 1.27722770e-01, 3.57697494e-02, 1.32425562e-01,
          9.12615806e-02, 1.10576518e-01, 6.36536479e-02, 1.21883504e-01,
          9.33800638e-02, 9.59538370e-02, 1.06271751e-01, 1.36325598e-01,
          1.67496294e-01, 1.43015444e-01, 1.30460799e-01, 7.28551149e-02,
          1.59397107e-02, 1.31271943e-01, 0., 1.22825608e-01,
          1.11275613e-01, 1.62866801e-01, 1.24893226e-01, 6.34172335e-02,
          4.43619750e-02, 1.53089806e-01, 1.79902598e-01, 2.47828469e-01,
          8.03339183e-02, 1.11726716e-01, 7.66251609e-02, 1.21851727e-01,
          2.35800788e-01, 1.36986464e-01, 1.84307665e-01, 1.30631551e-01,
          1.36688888e-01, 1.36299700e-01, 1.23404123e-01, 0.,
          1.15574032e-01, 7.19599277e-02, 5.25174439e-02, 5.77518716e-02,
          7.82688707e-02, 9.98289436e-02, 7.27907568e-02, 4.30458486e-02,
          7.94767216e-02, 1.10801354e-01, 9.91197377e-02, 8.65588859e-02,
          2.79970825e-01, 1.04779251e-01, 9.62313488e-02, 1.25353411e-01,
          1.44584164e-01, 5.71102276e-02, 7.18586370e-02, 4.26510833e-02 ]
      - [ 2.22089916e-01, 1.90463364e-01, 1.21929720e-01, 7.53494026e-03,
          1.28279477e-01, 7.06162006e-02, 1.05502516e-01, 1.48042873e-01,
          1.46596238e-01, 9.89889205e-02, 1.65175162e-02, 7.88876787e-03,
          1.04861408e-02, 4.47493941e-02, 6.78419173e-02, 1.94296107e-01,
          2.31927350e-01, 1.54482871e-02, 0., 4.54928502e-02,
          7.93519150e-03, 0., 7.45345876e-02, 1.37603700e-01,
          1.84115738e-01, 1.19393662e-01, 3.43192220e-02, 2.89868806e-02,
          6.93328828e-02, 5.20447753e-02, 1.45223692e-01, 2.53994226e-01,
          9.34224874e-02, 1.39558151e-01, 1.24017157e-01, 0.,
          1.96635842e-01, 1.33177906e-01, 2.06263512e-01, 1.63143620e-01,
          1.64089710e-01, 1.82574704e-01, 0., 0., 1.69894900e-02,
          5.91879860e-02, 1.24870278e-01, 1.42152801e-01, 1.66768461e-01,
          1.07467473e-01, 4.55751494e-02, 4.74819951e-02, 6.37513921e-02,
          1.14494093e-01, 1.07848927e-01, 7.37321898e-02, 2.93486059e-01,
          1.19575560e-01, 1.91800371e-01, 7.61792511e-02, 1.20148391e-01,
          1.24283336e-01, 1.08993992e-01, 1.15056202e-01 ]
      - [ 1.72825024e-01, 2.13027641e-01, 8.65164176e-02, 1.99037120e-01,
          1.30518064e-01, 1.24671891e-01, 1.01859666e-01, 0.,
          9.03588235e-02, 1.09655280e-02, 5.93557842e-02, 1.24759741e-01,
          1.54227600e-01, 1.10586859e-01, 1.36499316e-01, 1.55073509e-01,
          1.82192147e-01, 1.15761206e-01, 8.63569826e-02, 5.00542857e-02,
          4.36689295e-02, 4.27527875e-02, 8.89701173e-02, 9.32988301e-02,
          1.63886160e-01, 8.81401673e-02, 1.03148930e-01, 7.25909695e-02,
          8.36379528e-02, 1.36644483e-01, 1.59264445e-01, 2.60879427e-01,
          9.21729282e-02, 1.16822392e-01, 7.94500411e-02, 0.,
          1.53136238e-01, 1.89059138e-01, 1.83098361e-01, 1.38686359e-01,
          1.80937260e-01, 1.09828778e-01, 1.65205270e-01, 1.05335511e-01,
          4.93447371e-02, 9.32830945e-02, 4.88769449e-02, 0.,
          1.18586197e-01, 1.34836107e-01, 6.22068644e-02, 7.88439512e-02,
          5.58150522e-02, 9.72518921e-02, 1.44490320e-02, 2.02283904e-01,
          2.03597397e-01, 1.96139798e-01, 1.79380938e-01, 1.11474119e-01,
          8.94587114e-02, 6.95416182e-02, 4.64228429e-02, 9.70256925e-02 ]
      - [ 2.18692362e-01, 1.13034144e-01, 1.20273598e-01, 1.02157079e-01,
          1.33889914e-01, 1.53729707e-01, 4.89940234e-02, 1.14300601e-01,
          1.08379252e-01, 9.56381634e-02, 9.50222462e-02, 9.68909711e-02,
          6.21779263e-02, 1.17677100e-01, 5.99753112e-03, 1.51348203e-01,
          2.38869756e-01, 7.12558553e-02, 2.05992609e-02, 9.54815149e-02,
          1.58456899e-02, 4.47215661e-02, 4.65772860e-02, 1.27782091e-01,
          1.21414214e-01, 1.46345094e-01, 5.43138832e-02, 0.,
          2.80120131e-02, 1.42748490e-01, 1.28841743e-01, 1.83315903e-01,
          1.55060530e-01, 1.21347874e-01, 4.82059754e-02, 1.29691079e-01,
          1.45443350e-01, 1.67083874e-01, 1.71584517e-01, 1.56127602e-01,
          1.85347289e-01, 1.81300715e-01, 4.57066856e-02, 4.17563133e-02,
          4.42547984e-02, 0., 1.14102237e-01, 1.85501024e-01,
          1.89050242e-01, 1.06001735e-01, 1.05995268e-01, 8.86430964e-02,
          1.32487983e-01, 6.42838627e-02, 1.60888627e-01, 1.30835980e-01,
          2.22990572e-01, 1.45486414e-01, 1.44499674e-01, 1.16403110e-01,
          1.66911379e-01, 1.11254148e-01, 6.08949438e-02, 1.15475453e-01 ]
      - [ 2.49933273e-01, 1.43286273e-01, 1.27355471e-01, 9.97495055e-02,
          1.36674374e-01, 1.25624314e-01, 1.04832239e-01, 1.11724079e-01,
          1.20186560e-01, 4.73586805e-02, 1.05781250e-01, 9.95269865e-02,
          8.93032998e-02, 8.52152035e-02, 1.81120545e-01, 1.76416799e-01,
          2.37731487e-01, 6.29875585e-02, 7.52008408e-02, 4.63582110e-03,
          9.36782956e-02, 5.07252924e-02, 9.25760716e-02, 1.41478196e-01,
          1.82715595e-01, 1.07319340e-01, 8.19410384e-02, 0.,
          9.18254852e-02, 1.28050879e-01, 1.61309868e-01, 2.16148108e-01,
          8.75624493e-02, 7.60878250e-02, 6.38070703e-02, 0.,
          1.66327313e-01, 1.74341932e-01, 1.66628927e-01, 5.81233539e-02,
          2.21116871e-01, 1.36291578e-01, 1.19315580e-01, 7.71466866e-02,
          3.88704836e-02, 0., 1.04938604e-01, 7.62471631e-02,
          1.49071842e-01, 6.85135797e-02, 6.90204054e-02, 0.,
          9.53694135e-02, 1.02737457e-01, 1.39686912e-01, 1.22845531e-01,
          2.38644123e-01, 1.17856912e-01, 1.60790682e-01, 7.84431919e-02,
          1.46141231e-01, 1.45410448e-01, 9.81505141e-02, 8.38392600e-02 ]
      - [ 2.18248472e-01, 1.11861378e-01, 1.16336524e-01, 1.12233959e-01,
          6.51335269e-02, 0., 1.39251933e-01, 1.01777442e-01,
          1.47947788e-01, 6.34593368e-02, 5.58299497e-02, 9.47023034e-02,
          1.03248022e-01, 1.04299262e-01, 1.58895358e-01, 1.74199149e-01,
          1.77370086e-01, 1.16233818e-01, 7.17430711e-02, 3.71088721e-02,
          7.61862323e-02, 0., 1.15866318e-01, 9.49815437e-02,
          1.64205343e-01, 1.31536737e-01, 6.93381056e-02, 1.13961466e-01,
          1.45148635e-02, 1.44749716e-01, 1.64422229e-01, 2.17674032e-01,
          1.11927025e-01, 1.17144629e-01, 1.01169683e-01, 8.36775228e-02,
          0., 1.55106395e-01, 1.97411448e-01, 1.33726478e-01,
          1.94617376e-01, 1.91936180e-01, 1.20895870e-01, 7.88270831e-02,
          1.31945714e-01, 7.64313340e-02, 1.15441538e-01, 1.36479706e-01,
          1.36693254e-01, 1.03981979e-01, 0., 1.02444984e-01, 0.,
          1.04529001e-01, 1.27342194e-01, 1.01206362e-01, 2.53403664e-01,
          1.78937584e-01, 1.24133319e-01, 9.49217156e-02, 1.19720750e-01,
          8.70429203e-02, 1.12660937e-01, 1.39402807e-01 ]
      - [ 2.87017852e-01, 1.11759081e-01, 4.20630872e-02, 9.29857865e-02,
          1.31294131e-01, 2.67058946e-02, 1.11389257e-01, 1.14844270e-01,
          1.56595215e-01, 1.36318237e-01, 8.34029689e-02, 1.05471984e-01,
          6.86594993e-02, 6.26131073e-02, 5.88747747e-02, 1.34212658e-01,
          1.99332118e-01, 1.11394353e-01, 1.02445178e-01, 5.54142706e-02,
          1.10779079e-02, 8.39525610e-02, 8.01169053e-02, 5.49972691e-02,
          1.80136904e-01, 1.59791961e-01, 8.70332420e-02, 3.91467288e-02,
          9.73463207e-02, 1.24676205e-01, 1.97797775e-01, 1.60462782e-01,
          1.50796786e-01, 1.22063890e-01, 1.08835667e-01, 7.71169588e-02,
          1.28779113e-01, 1.13828696e-01, 6.23978153e-02, 1.97044536e-01,
          1.92630887e-01, 1.27744734e-01, 1.29258379e-01, 1.01907484e-01,
          8.49106535e-02, 1.15401313e-01, 9.31541026e-02, 1.04042292e-01,
          1.55986369e-01, 9.58831161e-02, 1.09010763e-01, 6.68068007e-02,
          6.10611513e-02, 1.18797742e-01, 1.38141453e-01, 1.24871314e-01,
          2.04785317e-01, 1.60728663e-01, 1.43545806e-01, 1.61905795e-01,
          1.35550216e-01, 1.23217128e-01, 9.86723602e-02, 1.09778211e-01 ]
      - [ 2.90976018e-01, 7.01341033e-02, 9.97127891e-02, 8.02740380e-02,
          1.74906701e-01, 1.37072578e-01, 1.51074782e-01, 1.00226775e-01,
          1.17849596e-01, 7.37421885e-02, 6.27444405e-03, 1.64509103e-01,
          6.23785071e-02, 1.12882359e-02, 4.78414632e-02, 1.96435153e-01,
          2.89473742e-01, 8.65250975e-02, 0., 5.97993322e-02,
          8.11603814e-02, 4.14315239e-02, 7.26334527e-02, 8.20976570e-02,
          1.62063509e-01, 1.23837158e-01, 3.33521999e-02, 6.91629723e-02,
          1.19046561e-01, 5.43707423e-02, 7.37928748e-02, 2.27644488e-01,
          1.04871526e-01, 1.29736260e-01, 8.80336836e-02, 6.82116970e-02,
          1.49955034e-01, 1.70206383e-01, 1.96834356e-01, 1.31448463e-01,
          1.75741419e-01, 1.61717713e-01, 6.51177093e-02, 0.,
          7.15400502e-02, 1.19527906e-01, 6.69901595e-02, 1.14364788e-01,
          1.25695616e-01, 9.72528905e-02, 4.09305319e-02, 7.99846575e-02,
          9.61191580e-02, 0., 8.77233520e-02, 1.85276628e-01,
          2.65534222e-01, 1.70349881e-01, 9.36690420e-02, 1.28316313e-01,
          6.99075162e-02, 1.11428335e-01, 0., 1.03741124e-01 ]
      - [ 1.93533659e-01, 1.66000962e-01, 1.41867340e-01, 2.11360157e-01,
          1.53678954e-01, 1.03514254e-01, 6.35707527e-02, 4.81953546e-02,
          1.24145925e-01, 7.26032443e-03, 1.08582368e-02, 1.70558780e-01,
          1.49741516e-01, 1.31031319e-01, 1.67265952e-01, 1.87702566e-01,
          1.77417353e-01, 1.33489892e-01, 9.27917510e-02, 5.62221445e-02,
          9.65428278e-02, 1.06487729e-01, 4.70595583e-02, 9.04773269e-03,
          1.51809186e-01, 1.29003674e-01, 9.65597853e-02, 1.04238927e-01,
          8.78998041e-02, 1.22251049e-01, 1.81370765e-01, 2.58790761e-01,
          1.03369601e-01, 9.51794311e-02, 0., 4.13837321e-02,
          1.13195963e-01, 1.37212321e-01, 2.10375085e-01, 1.68191865e-01,
          2.02357441e-01, 1.48415625e-01, 4.76155654e-02, 9.41354409e-02,
          4.25207894e-03, 7.20014125e-02, 0., 0., 9.73155499e-02, 0.,
          6.30713105e-02, 1.00510791e-01, 1.26579791e-01, 6.48373589e-02,
          1.18432395e-01, 1.65346846e-01, 2.00400531e-01, 1.63617998e-01,
          1.13716260e-01, 1.75015554e-01, 7.32343048e-02, 7.51363710e-02,
          3.36423814e-02, 5.33740520e-02 ]
      - [ 1.88789487e-01, 1.95818588e-01, 1.39613226e-01, 2.30183750e-01,
          1.29024535e-01, 1.61098510e-01, 5.65965958e-02, 8.15218240e-02,
          5.41408733e-02, 8.63607079e-02, 7.33930767e-02, 1.62677214e-01,
          1.47385046e-01, 7.98913315e-02, 1.73187941e-01, 1.49070621e-01,
          1.60240665e-01, 1.56858280e-01, 1.21390261e-01, 6.18318506e-02,
          6.17836677e-02, 6.43856078e-02, 9.84023660e-02, 7.66157433e-02,
          1.63875625e-01, 1.47709236e-01, 1.18207887e-01, 2.02136450e-02,
          1.01749063e-01, 1.11749992e-01, 1.92979679e-01, 2.41780803e-01,
          0., 6.01938590e-02, 8.66696313e-02, 4.84418534e-02,
          2.19258413e-01, 1.11541100e-01, 1.95589051e-01, 1.61133453e-01,
          1.39446482e-01, 1.05677351e-01, 1.43625915e-01, 8.31315070e-02,
          9.26360413e-02, 6.39614835e-02, 0., 0., 8.98839459e-02,
          6.94426820e-02, 5.54037541e-02, 7.10484236e-02, 0.,
          1.64518803e-01, 1.17560625e-01, 1.40861303e-01, 1.95685610e-01,
          1.25719905e-01, 1.50490627e-01, 1.26025259e-01, 6.73391521e-02,
          0., 9.79389325e-02, 8.38597417e-02 ]
      - [ 2.80395389e-01, 1.54550135e-01, 0., 8.25731754e-02,
          1.22659057e-01, 1.14739306e-01, 1.42004564e-01, 1.48403808e-01,
          1.70191780e-01, 6.39128312e-02, 1.50855958e-01, 1.03997163e-01,
          1.51973739e-01, 1.56568706e-01, 1.72082856e-01, 2.01070711e-01,
          2.38993257e-01, 1.12629332e-01, 5.08326441e-02, 5.04699070e-03,
          6.42931610e-02, 0., 1.78690076e-01, 1.27405301e-01,
          2.19633296e-01, 9.88028198e-02, 6.07419945e-02, 6.09556921e-02,
          1.12490751e-01, 1.53585866e-01, 2.33990371e-01, 1.39348075e-01,
          9.43391398e-02, 7.09583312e-02, 1.05800495e-01, 6.83116019e-02,
          8.21779072e-02, 7.20525980e-02, 2.16211766e-01, 1.71110123e-01,
          1.55260190e-01, 1.54806942e-01, 8.51433948e-02, 0.,
          1.29677907e-01, 6.13931268e-02, 0., 5.68809286e-02,
          7.76422992e-02, 5.62653132e-02, 4.68082987e-02, 0.,
          6.97174370e-02, 6.00191765e-03, 3.86783145e-02, 1.63263023e-01,
          1.19852558e-01, 1.49524331e-01, 9.81603414e-02, 1.68077737e-01,
          5.26655577e-02, 9.65109542e-02, 5.33641391e-02, 6.77502826e-02 ]
      - [ 2.10382387e-01, 1.57948196e-01, 4.08695228e-02, 1.06512949e-01,
          9.42004770e-02, 9.43109468e-02, 1.42589331e-01, 5.14887236e-02,
          1.44284397e-01, 6.75464720e-02, 1.37780011e-01, 7.04628527e-02,
          7.50861019e-02, 6.94385171e-02, 1.42330348e-01, 1.11965187e-01,
          2.01804891e-01, 5.20958416e-02, 3.55963632e-02, 5.24511375e-02,
          5.68575487e-02, 6.52824640e-02, 8.79354849e-02, 1.41013190e-01,
          1.76743552e-01, 1.55276507e-01, 6.66555762e-02, 6.78130612e-02,
          4.63023745e-02, 8.12780578e-03, 1.60107404e-01, 2.21741945e-01,
          1.62024125e-01, 1.41923442e-01, 0., 1.03921406e-01,
          1.54907539e-01, 1.52959004e-01, 1.37079626e-01, 1.51201203e-01,
          1.07593402e-01, 1.44880265e-01, 1.93832323e-01, 7.29203597e-02,
          1.03814237e-01, 6.49719238e-02, 1.18501768e-01, 1.24684669e-01,
          1.70363814e-01, 1.30596116e-01, 9.55197886e-02, 8.72460678e-02,
          7.66828507e-02, 1.56242996e-01, 9.15111676e-02, 1.40603110e-01,
          2.56542236e-01, 1.12315960e-01, 1.50118276e-01, 9.58727077e-02,
          1.05920278e-01, 4.27895412e-02, 1.52494118e-01, 1.62713185e-01 ]
      - [ 2.22717986e-01, 1.71229795e-01, 1.47198528e-01, 1.65710956e-01,
          2.16890499e-01, 1.02784380e-01, 1.04922563e-01, 0.,
          6.71143010e-02, 9.71349701e-02, 7.22202063e-02, 1.38640895e-01,
          8.23946893e-02, 1.35922506e-01, 1.83902502e-01, 1.83015019e-01,
          1.82242766e-01, 1.69336259e-01, 5.86868711e-02, 6.46602809e-02,
          9.81374085e-03, 0., 5.92201613e-02, 9.81023088e-02,
          1.93563506e-01, 1.03340112e-01, 9.32872593e-02, 9.15163904e-02,
          9.44395289e-02, 1.08670540e-01, 2.20800295e-01, 2.33713359e-01,
          6.71761185e-02, 0., 0., 0., 1.71741769e-01, 1.31105542e-01,
          1.65431589e-01, 1.66958660e-01, 1.56543523e-01, 1.93760708e-01,
          1.29747301e-01, 0., 0., 1.40268095e-02, 4.77626771e-02,
          1.87289715e-02, 1.25566319e-01, 5.50206937e-02, 9.78536382e-02,
          4.58069108e-02, 6.51211739e-02, 8.99804458e-02, 1.46485806e-01,
          1.60014212e-01, 1.87091351e-01, 2.18307093e-01, 8.60923231e-02,
          1.36870444e-01, 7.28960410e-02, 3.83284539e-02, 0.,
          8.18805546e-02 ]
      - [ 2.08960727e-01, 1.58085108e-01, 1.60404563e-01, 1.25547171e-01,
          1.32184565e-01, 1.06483191e-01, 1.50047839e-01, 1.03066273e-01,
          9.89437401e-02, 1.06468134e-01, 6.05418198e-02, 9.05594900e-02,
          1.34400234e-01, 1.12195730e-01, 1.39416248e-01, 2.06394434e-01,
          2.27192432e-01, 1.61377877e-01, 1.26604974e-01, 7.78184086e-02,
          1.00710638e-01, 1.00764789e-01, 1.03271551e-01, 9.96156037e-02,
          1.11065231e-01, 1.11831300e-01, 1.82554334e-01, 1.19511209e-01,
          6.54227361e-02, 8.23219344e-02, 1.85936227e-01, 1.84411958e-01,
          6.34489730e-02, 1.16047598e-01, 0., 1.08070180e-01,
          1.24222472e-01, 1.60858408e-01, 2.13103414e-01, 1.06616132e-01,
          1.52697653e-01, 1.49085134e-01, 1.30218133e-01, 6.89958408e-02,
          1.02489822e-01, 7.25512356e-02, 0., 0., 1.18117750e-01,
          4.70697805e-02, 0., 5.67709506e-02, 6.15195855e-02,
          1.12456985e-01, 1.25691071e-01, 1.77612141e-01, 1.69798076e-01,
          1.95044041e-01, 1.00055516e-01, 1.17098652e-01, 7.25518689e-02,
          4.87978496e-02, 1.33473977e-01, 0. ]
      - [ 2.27500051e-01, 1.53286293e-01, 1.59995347e-01, 1.19387038e-01,
          1.45679116e-01, 1.39356330e-01, 8.71920660e-02, 1.34713799e-01,
          1.23176925e-01, 4.79077697e-02, 6.20412268e-02, 1.18250288e-01,
          8.25475752e-02, 5.40876463e-02, 1.55668899e-01, 2.28807181e-01,
          2.06836775e-01, 1.19944148e-01, 6.02659807e-02, 0.,
          9.87271406e-03, 5.74175939e-02, 8.34782869e-02, 9.93589312e-02,
          1.59650669e-01, 1.32053033e-01, 9.14603844e-02, 2.80139763e-02,
          6.86675906e-02, 1.20280609e-01, 2.26226136e-01, 2.24534988e-01,
          9.30451080e-02, 0., 0., 8.30214992e-02, 1.43377632e-01,
          1.10143855e-01, 1.79580435e-01, 1.31987721e-01, 1.99947938e-01,
          2.10176647e-01, 7.21235052e-02, 0., 5.69325052e-02, 0.,
          1.16449133e-01, 5.12568094e-02, 1.08480223e-01, 6.91524222e-02,
          5.68714701e-02, 0., 1.02933496e-01, 1.16170086e-01,
          1.12032436e-01, 2.26094335e-01, 1.59385785e-01, 1.78853318e-01,
          1.84420824e-01, 7.84308389e-02, 5.09346947e-02, 5.49331531e-02,
          1.26941904e-01, 9.73143652e-02 ]
      - [ 1.83116660e-01, 1.18811823e-01, 1.55965775e-01, 1.33661062e-01,
          2.07332551e-01, 1.07971855e-01, 1.32893816e-01, 7.58330524e-03,
          1.07369892e-01, 7.14339688e-02, 1.28143251e-01, 1.09044299e-01,
          1.68641672e-01, 8.24558586e-02, 1.37127519e-01, 1.62105694e-01,
          2.47416988e-01, 1.06671140e-01, 0., 4.07965109e-02,
          5.46481721e-02, 5.20183146e-02, 1.32703885e-01, 1.52433082e-01,
          1.78464904e-01, 1.43288821e-01, 6.23212382e-02, 9.93385315e-02,
          9.13955458e-03, 1.35344788e-01, 1.79794893e-01, 1.22064427e-01,
          1.61307514e-01, 8.18497613e-02, 6.73179328e-02, 1.21840730e-01,
          1.30648166e-01, 1.36571616e-01, 1.73335209e-01, 1.79078773e-01,
          1.53769478e-01, 1.52169690e-01, 0., 6.50361776e-02,
          6.07587583e-02, 0., 1.01523228e-01, 9.91421342e-02,
          1.38283640e-01, 1.55612156e-01, 8.98310170e-02, 5.31711988e-02,
          0., 1.05551556e-01, 1.16297051e-01, 1.35292456e-01,
          1.83164820e-01, 1.29869074e-01, 1.92714930e-01, 1.23258285e-01,
          5.94042726e-02, 9.48135704e-02, 1.32538751e-01, 7.17684552e-02 ]
      - [ 2.10333958e-01, 1.57501474e-01, 8.31458271e-02, 7.45772198e-02,
          1.34426832e-01, 1.80731550e-01, 7.52774999e-02, 1.09530017e-01,
          1.25611126e-01, 1.30084470e-01, 1.49982467e-01, 8.19477588e-02,
          5.21435216e-02, 1.22136123e-01, 7.70417303e-02, 1.97513178e-01,
          2.70890117e-01, 7.51323700e-02, 1.07825520e-02, 2.67684702e-02,
          5.56292012e-02, 5.99394459e-03, 1.17674194e-01, 1.38839692e-01,
          1.71164379e-01, 8.03579167e-02, 1.03859581e-01, 3.65995131e-02,
          9.46960039e-03, 7.17773661e-02, 2.04363897e-01, 1.19564295e-01,
          2.07453877e-01, 9.78608578e-02, 1.00435629e-01, 1.07073203e-01,
          6.82780072e-02, 8.41592476e-02, 2.12833911e-01, 1.57495052e-01,
          1.61380380e-01, 1.74816355e-01, 1.01234630e-01, 0.,
          6.37133867e-02, 6.81434870e-02, 1.30827472e-01, 9.94415656e-02,
          1.69994444e-01, 6.71341047e-02, 1.02251060e-01, 8.44122991e-02,
          1.10556126e-01, 1.01787120e-01, 1.35938093e-01, 7.26560280e-02,
          2.09360868e-01, 1.97750181e-01, 1.49144426e-01, 6.38140887e-02,
          8.34972188e-02, 7.24643245e-02, 1.13611870e-01, 1.00026883e-01 ]
      - [ 1.69001132e-01, 1.70097649e-01, 1.46520570e-01, 1.62161335e-01,
          1.18607312e-01, 1.39352679e-01, 1.13209769e-01, 1.05209611e-01,
          4.19899300e-02, 0., 8.58720317e-02, 1.30084559e-01,
          1.55108705e-01, 1.30099848e-01, 1.02065794e-01, 1.05298236e-01,
          2.11663574e-01, 5.37807234e-02, 1.58853814e-01, 6.57225698e-02,
          6.56037554e-02, 9.46154222e-02, 1.22966096e-01, 1.33797452e-01,
          1.94525585e-01, 1.23468950e-01, 0., 5.54032288e-02,
          4.40767109e-02, 1.56213835e-01, 1.56512886e-01, 2.04470173e-01,
          1.14834607e-01, 1.07417986e-01, 6.35586828e-02, 1.23104140e-01,
          1.53071806e-01, 1.60933375e-01, 1.80013329e-01, 1.28987730e-01,
          1.18872218e-01, 1.62894666e-01, 9.64287892e-02, 9.58411768e-02,
          4.34719063e-02, 8.19661915e-02, 1.09156698e-01, 0.,
          1.31508306e-01, 3.07669342e-02, 1.33834034e-01, 1.10442027e-01,
          6.65650666e-02, 1.03185400e-01, 1.26141876e-01, 1.83742002e-01,
          2.10006684e-01, 1.55707955e-01, 9.53020379e-02, 8.46340656e-02,
          1.02199860e-01, 1.06134824e-01, 1.46764770e-01, 1.16531193e-01 ]
      - [ 1.58034965e-01, 1.16473123e-01, 1.51780561e-01, 1.65800527e-01,
          9.09098312e-02, 1.70353472e-01, 1.42256558e-01, 5.06197624e-02,
          6.35842085e-02, 4.20101807e-02, 9.51435640e-02, 1.22359112e-01,
          1.32902130e-01, 1.14278816e-01, 1.44172516e-02, 1.28348410e-01,
          2.12741375e-01, 4.32041101e-02, 1.04663968e-01, 8.14904869e-02,
          9.64407101e-02, 4.38206904e-02, 8.61131623e-02, 1.24875233e-01,
          1.78189710e-01, 1.29531115e-01, 8.60293731e-02, 8.25410038e-02,
          1.22442149e-01, 1.27787396e-01, 7.45074898e-02, 2.12093398e-01,
          1.13947630e-01, 1.22823291e-01, 7.37776011e-02, 9.59463641e-02,
          2.42681012e-01, 1.15405455e-01, 1.42971039e-01, 1.35034934e-01,
          9.64780450e-02, 1.43737361e-01, 1.43105343e-01, 1.22624047e-01,
          9.08776596e-02, 1.04240142e-01, 9.55054909e-02, 1.23793855e-01,
          1.03659585e-01, 1.20624378e-01, 8.80971551e-02, 9.69643816e-02,
          1.37502208e-01, 8.77209902e-02, 1.30598769e-01, 1.64369062e-01,
          2.29493186e-01, 1.28588751e-01, 4.29497249e-02, 1.59400418e-01,
          6.59478903e-02, 9.43161696e-02, 1.29530311e-01, 1.66693762e-01 ]
      - [ 1.97354078e-01, 9.83762890e-02, 1.39760435e-01, 9.98823494e-02,
          1.91355050e-01, 1.10098973e-01, 7.47209042e-02, 4.89282645e-02,
          7.36809373e-02, 6.87845871e-02, 1.18887484e-01, 1.51476741e-01,
          1.21760115e-01, 7.85405934e-02, 1.38403535e-01, 9.98742655e-02,
          1.62214279e-01, 7.82516878e-03, 4.90150340e-02, 6.83946013e-02,
          8.59821662e-02, 0., 1.04965262e-01, 8.95333216e-02,
          1.37100235e-01, 1.55577302e-01, 1.04725711e-01, 7.18620196e-02,
          6.11623563e-02, 5.74576780e-02, 2.07738444e-01, 1.47300512e-01,
          1.51885167e-01, 1.18872583e-01, 9.27970484e-02, 8.75001326e-02,
          1.08466350e-01, 1.52411684e-01, 1.54414132e-01, 1.48744494e-01,
          1.98047876e-01, 1.34681076e-01, 1.87490746e-01, 1.04583390e-01,
          1.03027359e-01, 1.17847465e-01, 1.33235455e-01, 1.42255381e-01,
          1.74062520e-01, 1.52955040e-01, 9.34476629e-02, 0.,
          8.69179964e-02, 7.16746300e-02, 6.20617829e-02, 1.96176723e-01,
          2.01955542e-01, 1.27325118e-01, 1.17098555e-01, 1.75903499e-01,
          1.24263503e-01, 1.33767277e-01, 1.03465647e-01, 1.15561925e-01 ]
      - [ 1.88283503e-01, 1.43271521e-01, 8.59037042e-03, 0.,
          1.72305644e-01, 8.92688781e-02, 6.07664697e-02, 6.61374256e-03,
          8.15954432e-02, 0., 1.09546363e-01, 1.00120343e-01,
          9.37619358e-02, 8.59809667e-02, 1.43818617e-01, 1.86750367e-01,
          1.89880893e-01, 3.44418027e-02, 4.19512428e-02, 1.03447340e-01,
          4.74205203e-02, 1.51928272e-02, 5.31651117e-02, 5.90405837e-02,
          3.93377468e-02, 3.18250917e-02, 6.29613549e-02, 4.20549437e-02,
          8.10922608e-02, 8.73916447e-02, 1.96924746e-01, 1.95450768e-01,
          1.60072267e-01, 1.66741148e-01, 5.04589453e-02, 0.,
          1.24372780e-01, 1.87128186e-01, 1.62027135e-01, 1.67981133e-01,
          2.44255528e-01, 1.92129105e-01, 1.18571974e-01, 8.10534209e-02,
          9.39204469e-02, 1.63639173e-01, 1.25012502e-01, 1.37931630e-01,
          2.13902295e-02, 8.62572640e-02, 1.43199906e-01, 8.19768086e-02,
          6.91578761e-02, 6.03419989e-02, 1.48039639e-01, 1.77074075e-01,
          2.18794689e-01, 1.81084156e-01, 1.72229722e-01, 1.92491144e-01,
          1.34061679e-01, 1.25194103e-01, 8.09555575e-02, 1.06614590e-01 ]
      - [ 1.74190491e-01, 1.41845211e-01, 1.24307744e-01, 9.34166536e-02,
          1.73696220e-01, 1.04027554e-01, 1.03802621e-01, 1.00704739e-02,
          7.58215562e-02, 2.16164384e-02, 1.08511582e-01, 1.29814446e-01,
          5.17477207e-02, 1.42470896e-01, 1.67111233e-01, 1.03531778e-01,
          1.75782070e-01, 0., 0., 5.49577028e-02, 1.19295493e-02,
          2.47409847e-02, 1.06984004e-02, 7.93060940e-03, 0.,
          9.49176867e-03, 7.20167905e-03, 1.25643592e-02, 2.85015013e-02,
          1.83301046e-02, 2.18388453e-01, 2.18519539e-01, 1.56235173e-01,
          1.69248819e-01, 9.66459587e-02, 1.12605534e-01, 1.48503944e-01,
          7.42870346e-02, 2.93727726e-01, 8.42689797e-02, 2.10411161e-01,
          1.97239667e-01, 6.93718567e-02, 1.40614301e-01, 7.41607696e-02,
          1.09900087e-01, 1.69451088e-01, 1.30630821e-01, 1.27568781e-01,
          5.58087900e-02, 5.88244982e-02, 0., 5.88612109e-02, 0.,
          1.10826008e-01, 2.40736991e-01, 2.64034152e-01, 1.55120015e-01,
          1.46008313e-01, 1.32420793e-01, 7.52622932e-02, 1.04501203e-01,
          1.43438667e-01, 1.08634390e-01 ]
      - [ 1.92612633e-01, 1.28624231e-01, 1.12484820e-01, 7.72570595e-02,
          1.55556783e-01, 7.63735622e-02, 8.90816078e-02, 5.31649627e-02,
          6.40495718e-02, 8.20953995e-02, 9.17543024e-02, 1.33482412e-01,
          9.60412845e-02, 8.44666734e-02, 1.40675232e-01, 8.44200477e-02,
          1.64916605e-01, 1.15885489e-01, 4.89603058e-02, 8.35837722e-02,
          7.25759007e-03, 7.67396763e-03, 6.53127730e-02, 5.56020439e-02,
          1.21238027e-02, 6.95713162e-02, 6.19608210e-03, 8.66685435e-03,
          6.04660921e-02, 1.31661117e-01, 1.93628460e-01, 1.51267722e-01,
          2.03236535e-01, 8.58363882e-02, 1.45195588e-01, 2.48805806e-02,
          1.99101225e-01, 2.15971395e-01, 1.61480635e-01, 1.32147834e-01,
          2.13239104e-01, 1.51838735e-01, 8.87743980e-02, 1.36275738e-01,
          1.57668695e-01, 0., 1.02795593e-01, 1.45866334e-01,
          1.38033658e-01, 1.17938600e-01, 9.60199907e-02, 8.85824859e-02,
          1.06829189e-01, 8.48040804e-02, 1.32747039e-01, 1.93961188e-01,
          1.69161007e-01, 1.42796978e-01, 2.43959144e-01, 1.32087097e-01,
          1.74326450e-01, 8.19758847e-02, 1.18434854e-01, 9.89057496e-02 ]
      - [ 1.84481576e-01, 1.53427958e-01, 1.71664938e-01, 1.41986594e-01,
          1.29961818e-01, 1.23806544e-01, 1.26789361e-01, 9.91418436e-02,
          9.56859663e-02, 8.26631412e-02, 1.17876336e-01, 1.01356782e-01,
          1.30070522e-01, 1.13618210e-01, 1.61523834e-01, 1.32268280e-01,
          1.64789304e-01, 1.54906943e-01, 1.17898472e-01, 6.87450767e-02,
          4.57725190e-02, 1.14312686e-01, 7.24798366e-02, 1.56936303e-01,
          1.10655144e-01, 1.33808166e-01, 1.43830866e-01, 3.49171236e-02,
          7.48526007e-02, 1.62843138e-01, 2.06433892e-01, 2.08033264e-01,
          7.55540356e-02, 8.32671374e-02, 7.60252625e-02, 8.29545707e-02,
          1.36540771e-01, 1.26035258e-01, 1.48023814e-01, 1.32072762e-01,
          1.81883857e-01, 1.56786576e-01, 1.20964274e-01, 7.81334564e-02,
          1.17169626e-01, 0., 9.34014320e-02, 9.44281369e-02,
          9.94041115e-02, 7.36935735e-02, 7.75168911e-02, 6.11579008e-02,
          1.74297348e-01, 7.66995475e-02, 1.15296215e-01, 1.60798073e-01,
          1.95183188e-01, 1.51667908e-01, 1.11210383e-01, 1.28286734e-01,
          1.11339465e-01, 7.62952045e-02, 1.12717144e-01, 7.70539567e-02 ]
      - [ 2.64330000e-01, 5.85422814e-02, 1.08875096e-01, 1.07312873e-01,
          1.06979117e-01, 8.85262936e-02, 1.10995710e-01, 1.53645560e-01,
          1.00876197e-01, 1.21872313e-01, 7.89468139e-02, 0.,
          4.11424860e-02, 6.68916479e-02, 7.30767176e-02, 1.45701781e-01,
          1.89740762e-01, 1.79251581e-01, 1.04219891e-01, 4.74025123e-03,
